391 300
instruction$$cache$$parity$$error$$corrected 0.20177489250297864 0.4163672188497833 0.2857735026446217 0.7464311323693641 -0.890243764356971 0.4832798990782394 -0.1837290863533591 -0.4142356124611932 0.1748274737969347 3.3034642074340956 0.5564314552922465 -0.4005420855389683 1.0691836645987147 0.49462078872461285 -1.0791112077251905 -0.11078880156278259 0.48107502663679436 6.067121477203314 -0.5388619756573945 0.21034808530441296 -0.5069799166581705 -0.16743087230416254 0.4420540237219156 -0.16141450447600336 0.25272794625922274 -0.5351892363957289 0.2741577106651883 -0.1258147659714211 -0.45283858672400423 -0.1686358600736876 -0.9428177059403393 0.0823405120020157 1.90572724426577 -0.43147231270921704 -0.8140917380801662 -0.1467163438658584 -0.49669851374741125 -0.05996932640600139 0.8774396753705509 -0.899427808282106 -0.4931260354028415 0.12998018325718558 -0.13197544585052354 1.1002290712031408 -0.5085898609748809 0.22962314984380783 0.8768813094386698 0.8320618053426768 -0.2198174103324694 0.2093667718194725 -0.6566301496085459 0.356534098328551 0.19823820362073977 1.103156773946252 -0.6964898917691775 -0.021045723023702882 -0.6672222961600183 0.4220777101629156 -0.3198355330728782 -0.10428798416916484 -1.3005866455979407 1.2532881257707147 -0.5603705615315444 -0.777026364275357 0.8563281576872661 1.3754229249152343 0.5444184810356373 0.9892311549145035 1.2724838644709724 0.011698021021087135 1.4229985798806333 -0.1479798033168443 0.3043887199932179 -1.7071597293952574 0.5724210334649364 0.3174659111004128 0.31371574842985117 -0.9112942997031996 -0.3230276360837981 0.7171028608250071 -0.629418431706247 -0.5020779292818113 0.1290875238132339 -0.49677987926086015 0.5895647686044062 0.3605775710740208 1.7740229344844998 -1.424880144863564 0.44629446859227045 0.5309066221297319 -0.6153768335641553 0.5446049188981843 -0.5842229602743477 -0.4914429904303598 -0.057516752499239016 -0.38683023327481525 0.05108240738871554 0.8176982519645912 1.3205316701924608 0.9546702256173905 -0.9184011930971955 -1.0369787043290513 0.1690471036244898 1.312765577003923 0.06916213285961008 -5.114244772870226 1.3235272282437625 0.08340185151797253 0.6247664100257894 -0.21626159346876453 -0.525668097803906 0.5618744264550841 -0.11219378500736865 0.1325913852220587 -0.4154085569634642 -0.6365050275518847 -0.30682049428977454 0.14260488803536178 -1.1542764540059058 -0.9632280785234288 0.6686639619638581 -0.15923810623707235 -0.3626758736801523 1.277811168746779 0.5390924846976111 0.01786339630838152 0.17992510298373834 -0.5103381960970642 1.0517893661813025 -0.6896647314963928 0.17944109950077475 2.0595910359875758 -0.63390346588251 -0.3756480112167059 -0.05300756804057788 -0.7235371838100292 1.4057543951055267 0.7913007370170602 0.18948057484362718 1.173379491258362 -0.5202355122424448 -0.2927754947359219 0.6246733651085333 -0.47331471108408485 -0.28070599585555034 1.0299215828538602 0.4156535302918006 -0.24027029907713945 -1.3709019664678452 0.8156173983898516 -0.4668813190734603 0.525640513747813 -0.035704284801786626 -0.058547319976674096 -0.039094317615563284 -0.4424623970171907 -0.3206458077203945 0.43061351201718384 0.5115198766573605 -1.3434211120058985 -0.8235086756646224 0.3889583421181667 1.1207730683941688 -0.24284622397397468 -1.7963848220667464 1.3016712430942114 -0.49115738284960136 -0.05988793277904925 -0.09346289483024184 0.5672065924409577 -0.2792789552518766 -0.025588065593867754 0.2354169138632498 -0.38227937463028405 -0.24464916576618229 0.6758738564781883 0.1996458445278506 0.09427312666405088 -0.7721070271785422 -1.0839460935843384 -0.10675846581951992 -0.9705681988377473 0.7376996128938299 -0.027248991496359787 -0.7118279267272765 1.0277257797826285 -0.1848288490432393 1.1166116498322272 -1.371790514597698 -0.6681054730399703 -0.535046417695409 0.6008811727799509 -0.26030544712795745 1.1268788061381991 -0.4259472801663978 0.18567824146860618 0.814584330551576 -1.557716096859423 0.29363590995283195 0.4353680749234847 0.0076174973808533775 -0.7362148631408257 -0.8560693660750937 0.00785959613694806 -0.7205204370772882 -0.6287633842798815 -0.31385758470292485 0.49794669219098076 0.12331691332002963 0.7397835006678732 0.46349020858028883 -0.40219586164268994 -0.2730244334913642 -0.9574393455838146 -0.33757291649958737 -0.71551893448585 -1.3462965777923823 1.122326281281079 -0.8857998414798153 0.40429404231237676 0.395861062657405 0.8348236714984492 1.2216951746699714 -0.7882644494823788 0.6436466218337193 0.8723691608172297 1.2952906506324189 0.6291325442832272 1.5636877528905075 -0.0006832167058791055 0.5374777058356065 -0.6490645760170692 0.9634522468650056 1.566114567918497 -0.9046439138087136 -0.04142623427184368 0.07887561593589762 0.23801069826918775 -1.0291980597733517 -0.7940385107971384 0.3448883147954439 -0.21548553899165362 0.01719067255849875 -0.3732179065261596 -0.7697878696672735 -1.4608129645234897 0.801782124201201 0.4507119180224931 -0.6157650533797212 -0.3039364898552977 0.25090158880993324 -0.6785127023878362 0.20827960543617796 0.16361004595132106 0.4151620605235363 0.7498604992151238 -0.28898140003680733 -0.3983218145378423 -0.3942928592428624 -0.3025755261305706 0.44113807397143734 0.2785973257296126 -0.3617508502045949 -0.2356340879455222 -0.059398358593323715 0.2393543095673316 1.569382652058763 0.7294325431994544 2.3957063000533765 -1.4771869545098277 -0.14571537194357032 0.320950954082851 -0.013155612236362205 -0.8571073149085475 0.2375314019836488 -0.6884067767366351 -0.15942917177896654 -0.06800320723309401 0.0036449464532611886 0.10060700183910593 -0.01336441580383518 -0.6493598475140882 1.9048107504112588 -0.7632948940304999 0.6920883200237083 -2.229581109112192 -1.3877366405207767 0.47308697285295076 0.6085709105559065 -0.7118213710677638 -0.16807548567573133 0.12470815953914999 -0.11337284091706001 0.7310602435510412 0.3940483204393029 -0.7436086318779904 -1.2388286351521838 -1.1327623922470993 -0.2113321447634951 -0.1027629641765859
MidplaneSwitchController$$performing$$bit$$sparing$$on$$*$$bit$$* -0.2742313746386102 0.353427139061138 0.19626145467490785 0.7259071990423943 0.09538816107786538 0.6226315917112033 0.437817588973705 -0.7019553942304505 -0.8602969287847715 5.958526405055293 0.6719688104131123 -0.040946938018576615 -0.3871720637362555 -0.754583041554815 -0.80005144954954 -0.26284209169197104 -0.21875197681361003 4.486768339649463 -1.000591344250487 -0.17946502053363603 -0.5870029867071395 0.2572881958362912 -0.6331413768973293 -0.8016961994067806 -0.5687407094674455 -1.191209375615174 1.1379379959646547 -0.5034813677339949 0.8845274238118291 -0.38398883109063514 -1.4185026238330696 -0.19449179810969025 0.5991310747041797 -0.6806200544969434 0.6517427108079232 0.6331583851515005 -0.27118652610337646 0.8929556814285382 -0.15312579032446982 -0.8097303756419403 -0.07186087984887521 1.5183574022627184 -0.041668780332830516 0.4071062106464334 -0.09672070432568991 0.7640537498338215 0.16458265935943284 -0.3653538241149425 -0.870791702373587 0.3461248826798163 0.4064357202088533 0.6392998581165791 0.6363734256908824 0.5035700817619279 -0.21918412780747346 0.13991443045644275 -0.16617308545913134 -0.70510342976753 0.3625717769861616 -0.2506041339821495 0.13993230819270625 0.4699907005042142 -0.5313768378884618 -0.5814574366523808 0.0030973866593760188 -0.7140593235890919 -0.49947914596281984 0.43660808165035603 0.3358579263709024 -0.1390550156893529 1.5323471610306902 0.13532481830445656 -0.047460643275870094 -1.0769754001637137 -0.050826424154901496 0.08916003461338365 1.8291506575152294 0.1042775155694828 -0.5993591694131848 0.19565915226244246 0.588222857538349 -0.16619806850599075 -0.3359693078464216 -0.8103071690843031 -0.6300177972662405 -0.4804928647925469 0.8730144788765587 -0.3040286720066515 0.34325072343654095 0.3850825971122536 -1.0838571792134928 0.44340400440688765 -0.8537535468781827 0.6469593800097005 0.058122936511714816 0.16305248592681468 0.14046055462579166 0.628566137166646 0.7802844764549759 0.6922237454789403 -0.567622255000285 -0.5770158246705966 -1.0753400862177394 0.06600558829161797 1.2690269378603076 -4.196045485178571 0.6271555451707395 -0.3732944789911602 0.5597356299471832 0.20553518157262352 0.24829522861284647 -0.9545858377691212 0.4456738265129537 0.728020961043127 -0.17690372372908392 -0.541402283566011 -0.45924440240700193 0.20008357167917704 -0.1298380725739994 0.6724713314633493 0.895937651845902 0.057611484505023486 -0.467139102452719 0.3477632398380619 0.04575773030117792 0.36799031459762416 -0.9053765061365373 -0.17501703552141498 -0.3422772541031315 -0.01770541933319161 -0.47792413152705693 0.8768749958992922 -1.5912753351605575 0.5470389848266054 0.4105409946675901 -0.7408359533935801 -0.4444165789448922 0.47801555063851886 0.18706133620773036 0.024296461931203647 -5.80268526169483 0.581106074167214 -0.724969710761076 -0.5933447262711308 -1.073733074161292 0.00393983384848519 -0.3413827490995697 -0.7269508597228624 0.2692411800269142 -0.3378258043666647 -1.3176654034183641 0.5785549764298499 1.175292935491845 0.5236821113792627 -0.46784815901382204 -1.0713997703090463 0.23000947685441311 -0.10865207832673353 0.057458195397014855 -2.239988527941619 -0.3481966865911594 -0.29747504549381504 0.14533402457631767 -0.5913118241420062 -0.6646705485338531 -1.2756829398442864 -0.12371788229310254 -0.5114461651449278 0.05362608700031296 -0.5035104611324113 0.5191356844105234 -0.5339439985795947 -0.3852018636027584 -1.0633885910864727 -0.0648978911714043 -0.5136911750332765 -0.5399930881511406 -0.15563493394495273 0.3690674528924176 -0.04878604177933194 0.0151104025396467 -1.980982106918695 0.029776361527671394 0.5977751218892634 0.22161996680126805 0.7021415486649916 0.5340189694658003 0.8092607980546533 -0.8251648011038758 -0.6415550650290787 -0.07104895517236845 0.5714334887365466 -0.3819429169653143 0.4139847807356841 -1.3278479667618666 -0.3637629967926275 0.34964253634838116 -1.0755039553064734 -1.296089743255751 0.9111165651487223 -0.18973907000543927 -0.4582134010457593 -0.4455712065076265 -0.04639029929772656 -0.4562286244520434 0.6885319025064557 -0.21102118440513484 -0.667279818688403 -0.1415457828002868 0.5546158608308818 0.22739747464832882 0.029688894957124644 0.02509470505961041 -1.737875085102637 -0.12325495280049467 1.3915462571814674 -0.2962033832577774 0.44831692118952676 0.25368972747993856 0.8278978118805269 1.111816802466979 0.5326396162155089 -0.6420733394758503 -0.3519705919565691 0.2901488646946357 -0.6775745922062912 0.5021976644958787 0.12674549956791417 0.38968876697451654 0.0926366620991706 0.11580458695555755 -0.7084097735564555 1.0396071639414002 0.4185118100623851 -0.43337908948420056 0.13078762909297134 0.2805669546052177 -0.28619869467727926 -0.28812212786535074 0.06508161490268743 0.5131771908373534 0.3374475592243835 0.30109112835904495 -0.2408299501355505 -0.24688729736717135 -1.166323193833483 -0.05913470655699675 -0.3049925175264643 0.4844310722004636 0.4456132908261221 0.03448577656590313 -0.2621225752913123 -0.2460159853882904 0.04814747834002624 0.10032367400998189 0.16649825654317246 0.7360790260261124 -0.7153260930878592 0.2687825414530328 1.8857903477403315 -0.20308685185762546 0.6252260320815 0.22539176952157575 -0.17959498929729928 0.10558850436179304 0.400353238618319 0.3409448676004338 -0.2521645825940176 1.4887364664018832 -0.1802604367539633 0.2658670590361326 0.6258414292328854 -0.519674049724125 -1.7939291502854178 0.4078301042195725 1.001924725187257 1.0982968312362411 -0.8564413841550398 -0.3535904123330349 1.7249412295165436 0.9241682541401303 -0.08598107202252803 0.9226053517717308 -0.11219063796787582 -0.8890778537079379 -1.3106532641419337 -0.07389436157140028 -1.4705069207776849 0.6086963352062927 -0.20855883548501064 -1.070361415588321 -0.06041301096062206 -0.26482737830373615 -0.4696363340734432 -0.4665061981772008 0.5175354545584879 0.44680487465896784 -0.47784211678940236 -0.2002551700096305 0.38519285792282204
generating$$CORE -1.3028870245445008 1.9491848180409201 1.1064076416673834 0.39527165952939647 1.3006273257484189 2.4600062404978527 -0.0935801611505842 0.6934444861114982 1.130553625516439 6.801255107558442 2.347600532331419 -1.7333918349108723 1.6070705347875203 0.4309327073891651 0.1679474328044271 -0.3001572596654623 1.5949858212479064 12.756809121827398 -1.9295364835977926 0.13990432763431643 2.289987376279805 0.5587077948649019 -0.7692998725105646 0.5210086824868998 0.591696266073777 2.515825594896727 0.18282488977089145 1.192154359411946 -0.44735278235050535 -0.20803822657775717 -1.1915957668161552 0.07816866854270399 0.2630267279415979 -0.7701091524345657 0.7850726955178761 -0.9415146267354937 -0.3323933377056134 -0.19201593977050324 0.3878462355807827 -1.4878319545611964 0.4148948540516343 1.9370097030532436 -0.506678285914463 1.1816028154099452 -2.0974828726396217 0.5017140665809541 1.4527301770903787 -1.1628208291621684 -2.9908811103111947 -0.40200873951456106 0.30939781738565947 0.47673511728945206 -0.6660886444900448 -0.6055862639936619 0.44680256257012907 -1.571424955314128 0.3738619459735508 1.923194819896033 0.4793065225254905 2.1882292166987094 -1.0019415762675066 1.8504214942620507 -3.1729474376919318 -0.9745211644415417 0.5214362934308922 -1.1777213169759504 1.7319951864089878 1.3822300780591927 -0.197619994023847 -1.3877381435821372 0.6268026462568681 -1.6744861271253537 -0.10099473491356509 -1.6398762661167146 -0.9442777292685768 1.363264779460741 0.9678752562481128 -0.1546779454628936 1.4371275122375584 1.3910353475537889 0.11203605358857335 -1.855895205107194 1.0220785721390688 -3.179683056563223 1.86192766165256 1.5746158038179188 -2.0320771385335865 2.747521908078004 0.7453119058937688 0.5560865445106529 -0.28191327931136023 2.001978944845767 -2.0532879589624615 0.7580599247549971 -1.356109831093089 -0.6010714911200202 -1.485622088460143 0.5237178663755523 -0.13342059427701614 -0.6064790520746346 -1.2293059280482832 -1.0795029027422243 -1.0690165108530205 0.0006668363678847267 1.2261427138046674 -12.244737550789967 1.5333247822426426 0.346568888066471 -1.0763861624123483 1.2027973096327864 -0.44494689329330395 -1.0149878636097929 -0.14135395535103062 -0.158013701538124 -1.1246935485498268 -0.21175808271301289 -1.2846534125167677 1.4803879595726288 -1.412510669208216 2.3773509525241763 0.4084621396750099 1.1043489439171503 -1.2984635055540439 0.5641183331404096 -0.5880635011106232 0.5035940310243926 -0.5538999376134712 0.15999051497338596 -0.8111536165100085 -2.8820738823515706 0.4858684162947104 2.006597554534165 -0.38729814635488563 -0.7437284974511577 0.4055618698318619 -0.09998774984825959 -0.14088192213756467 0.6068667740360933 0.10292718677396206 -0.644924287485648 -1.3463641602196212 -1.0665100585053986 -0.7314083129189972 1.4410884176116368 -2.12710761160382 -0.7844521783324178 0.5018861133595744 1.7393968117481011 0.619373077062677 -1.1075953031177632 -0.4255413708376953 1.1427129155840026 -0.5068439045465316 2.3491120312839033 0.4515255688673137 0.28006022728999697 -1.8746785449359147 0.3462148744362725 -2.132866346098069 -0.27505349573848603 1.8463249808577804 1.444098350344807 -0.2949912522994826 -0.4682783470757871 -1.4167220451042148 1.5184335981240096 1.2837894341474916 -0.5678378792792551 0.5577101688595655 -0.389590032539007 -0.3892099917836407 -0.14317292830062833 -0.4554893074002231 -1.9526471682727453 -0.20222027176930918 -0.3696077165133796 -0.2885552371607114 -0.7209491462517196 1.5357187538075046 -1.6006998671121715 1.184435783019414 0.19821063753242138 0.4819345038621116 -0.7934722925448212 -1.1086185910429376 1.4112716278673263 0.942454987368065 0.9388751533587432 -1.7764047924262765 -0.07733749325412242 2.5192823058088862 -0.05813923931333542 -0.06230292523720671 1.437385793022614 1.9628888428205131 -0.24369378386238458 0.3608836476509021 -0.322338157267177 -2.582544576057958 -0.4535757360965613 0.9438291644799253 -1.3681297665381313 0.5948796936262918 2.058818885435975 0.14103927015207895 0.17511351863822666 -2.0295977589173853 0.0646671548063315 -0.7423537959135773 -2.3332340154242073 -0.9531573110162637 -1.1566980242615263 -1.01658418851952 -0.1906711261262195 -0.5632011805869468 -0.11364598658407621 -0.8257962336996127 -0.9261250816493543 -1.1604082118411965 -0.17161508933272882 -1.631524940009837 -0.42981590247027485 1.0138368011911996 0.49151804218119166 0.22037877975644027 -0.05798198449361064 -0.7113002439446683 -0.49294191886954736 1.4221562514438078 -0.6449591412743906 -0.5175620871759234 -1.9175293723043456 -0.87276798874833 0.5103857622281066 -1.8300534735945306 -0.3259007545807227 -0.1673664913743707 -0.45024292005945565 -0.557168270162917 -0.11669789526566329 0.6155535210013242 -0.9040352596087097 -0.9615819937776244 0.9992510407021409 -0.13889047569513335 -1.2891498134207695 0.43087820349990535 0.9394729905330006 1.9561287525311504 -0.21032231820789282 -0.3464518695153095 0.12858966897271573 0.9342766014626593 0.9969481269175566 1.7324912983855851 0.019487836771782174 -0.5647026693833246 -0.14278719402589546 0.5518118243088466 -0.4422850289254214 0.8424408950628719 1.4690277633094888 1.4485087707628512 1.924867542042418 0.5029259551084719 -1.218920355379114 0.0630763238552885 0.12157201009365924 5.947996172991462 -2.113009124381987 0.48334530520725116 -0.4350307085921997 -1.077908279987433 -2.368443356927122 -1.8215271776148607 -2.240164138275495 1.500195221636299 -1.8310808987305025 1.1514882312496408 1.2325636588645201 0.45630134840342046 0.32905168728574663 1.296145213629448 -0.5054878649675623 0.9585884744871159 -1.5164285651361251 0.3386064807561786 -1.5707285978456218 1.3017466014189005 0.04578264236025781 -1.6384308335474638 -0.07480043015007846 0.4911963875690063 -0.46091881743560126 -1.004896856719228 -0.967914080860844 -1.0147155025482089 -0.5356412618712738 -2.472019082935031 0.5825160414510941
*$$ddr$$errors(s)$$detected$$and$$corrected$$on$$rank$$0,$$symbol$$*$$bit$$* -0.20999442351432665 0.37861441965898757 -0.33043404703852713 -0.021660158410729505 0.17025138400502435 0.5320097521475492 -0.05640533339893859 -0.23228768417457246 0.04035058736268003 3.377489611187326 0.358436934775406 -0.49627931974841866 -0.24691253385242404 -0.22256168014653518 -0.1626482697583886 -0.2165509804690675 0.2261890970920778 3.9946902614794704 -0.8098819309530936 0.05259033091455037 0.01176160858439089 0.07573552457936462 -0.4658269336328726 -0.7205872873444054 0.4115198334509932 -0.517390687110612 -0.23734812346168016 -0.032660010310754 0.029158708322439088 0.18111339702287502 0.21834657973759325 0.0271332392999433 0.44016829772461724 0.07606160726847441 -0.39568064665602015 0.11181215687845089 -0.3946095198077272 0.2501243781543248 -0.36613822791643763 -0.28505216604586503 -0.08638145967427568 -0.12565223942982448 -0.185682300958996 0.3251120172159176 0.28297585848822737 -0.463022100519754 0.0958152185048696 0.4904381352517602 -0.6192199254449736 -0.21255454632621246 -0.3380966409635344 0.2227899560768047 0.17677002817536583 0.007414892509953103 -0.15747794136284385 0.2878462113650194 -0.07983579359587818 -0.011936248874490824 0.26373927726061547 -0.38867901729231435 -0.4049995988975257 0.28647489756751954 -0.31035578656328267 -0.004395667040859183 -0.01658725286686811 0.676044590409747 -0.1507608946633888 0.0351601737722993 0.2099234953967387 -0.06781920111860842 0.735313425354101 0.23055740705092215 0.15011930750615687 -0.49949506248829606 0.585736345979857 0.025522471419679487 0.1163426209778052 -0.5286085350373133 -0.11075920130807358 0.3773636349095564 -0.5910669775605558 0.22615341669467057 0.02831219082486966 -0.04595559676130139 0.45321680974353995 -0.11993489560073585 1.0298631147527557 -0.9891357455807112 0.2975868462965449 -0.005252411125645334 -0.3561745398967464 0.1363195643967497 -0.25548868338526026 -0.7225121992483959 -0.04387482122005271 -0.2580821863661928 -0.1254412411926945 0.38268742339644307 0.08366773815347703 0.042049601713128555 -0.5372206480629763 -0.3157906648394507 0.06013033493261105 0.21312137399222414 0.251061314684919 -1.4043741703918906 0.0575924215205743 0.10638716940753416 0.1733421483350269 0.22600477105218134 -0.253775907704633 -0.029802863817661146 0.1979358163328631 -0.0274016129159217 -0.09522690215666252 0.08759571087367185 -0.3223752477320425 0.19061048583443432 -0.2851733322428797 -0.6646400071274724 0.520247737181257 -0.007744261897822593 0.2819871613463416 0.2201262203277046 0.07390145362965622 -0.0073722207712677915 -0.24647619248944175 0.07067095970486251 -0.1632708319123897 -0.8468548688776234 0.0113858162006962 0.5774637021234632 -0.5473212648740284 0.25463955427494395 -0.01685924907297195 -0.4605150812436892 0.40810512086053513 0.47775888746284506 -0.1149953844886546 -0.05089531393789794 -2.283641927225746 0.9234194879079808 0.5793400941370395 -0.17666642501037005 -0.07455989986812048 0.5210771439337503 -0.18602734023523787 0.0013256627300929635 -0.16166428361728571 0.07338452636132477 0.1011937583633206 0.35158171163146934 0.40409057738134435 0.12659404356523005 -0.2714163631952711 -0.1784956996033148 -0.10865456545187258 0.638460073595355 0.6495282045508846 -0.7082873866519471 0.24963260894268713 -0.08021362718272636 0.41771244319334444 -0.224067885919759 -0.7247238636501607 -0.423074295677356 -0.32897577011607776 -0.34263957978570436 -0.1878585743967246 0.3508244599667751 0.013345077765591335 0.04343760942357006 -0.41223292332846306 -0.6386797378721859 -0.49626684358539386 0.15242789096811854 0.5984091194922907 -0.193913892622074 -0.0033477835103153837 -0.27335816879071584 -0.1541853410443932 -0.30957438574605245 -0.044652240115044345 0.052322572264854386 -0.9861156714947273 0.17699646379870052 -0.32180738432635475 0.32909590711170705 -0.03693094878361862 -0.26391168523745573 -0.5062395189475408 -0.12129771322507886 -0.13366103318079753 -0.11094620473118254 0.33794225678855033 0.045691046610641786 0.3319242621541372 -0.5921082146233594 -0.602701968353093 0.46867484696343553 0.16517937704381822 -0.5408058395089992 -0.6858298116030713 0.5147216992048712 0.07625274531955055 -0.36409765323192217 0.23449761192041516 -0.007320960687112279 0.01540625584308904 0.032917506765664656 -0.1734283271459579 -0.45427436234064267 0.09440102415709747 -0.7283730536037629 -0.35816455996981533 -0.11811967315014958 -0.0780501687026472 -0.16313731630594855 -1.1208507974690547 0.10869788127102345 0.4585058121759936 0.3469136446142113 -0.02739116133401834 -0.4626755783653244 0.1356500352865192 -0.13693079280417547 0.5077620111450664 -0.19008995175518725 0.7127003142356904 0.21395209843002239 -0.46467180282385845 -0.5042698707211191 0.38368378383713037 0.6107069467665127 -0.5777761028321996 -0.04898621423338359 -0.17849959218024927 -0.23073545467992718 -0.5584827330627232 -0.013038283650485953 0.0061875714981065345 0.17533832892607565 -0.15878148458930838 0.10469191874267363 0.13974141203056187 -0.9810192450551619 0.17134296246617947 0.050440634086130386 0.14955771817791766 -0.18093942744384867 0.2642184301829617 0.3918586602456152 0.3430074556337185 -0.4415822186186474 0.07019532963069343 0.4522470049159568 -0.08664200776919248 0.2845094466083103 -0.02324969208040158 0.8016910438616959 -0.24345937891887115 0.7476294790577085 -0.4397514634944389 -0.030272201411290736 0.07095297625691312 -0.3057739681990987 0.1548440198067795 0.03489820479889109 1.8352833880048642 -0.702933228165398 -0.1917079759496358 0.08013191941055747 0.13863025562540376 -0.07824317656601629 0.014827577796219571 -0.0779262117143063 0.10917022423652298 0.1694326412699334 -0.43517280174210915 0.4670214706722614 0.06069874689547891 0.45965736141618735 0.9620741473939912 -0.4628945825149643 -0.05131095022215943 -0.4689368033007055 -0.3209141159430408 0.11016690327252977 0.7030804586998738 -0.09822227175680504 -0.4856732263652887 0.5354807368060852 -0.22772393196678017 0.10586789750853765 0.11438766955837845 0.14874778940419692 -0.3500178209352882 -0.3242287171420134 0.32961443685420244 0.10160900138836086
*$$*$$*$$error(s)$$(dcr$$*$$detected$$and$$corrected -0.06716754869026917 0.4195069350757335 -0.47697542865598563 -0.19808609572912084 0.13720581982362917 0.574325652021603 0.004731220325821836 -0.5052531185835727 0.021644990234822775 1.9635120604415364 0.3940441889598314 -0.20104851642393318 -0.4011864978538539 -0.2270522646524714 -0.18452543046483608 -0.42777917049931724 0.23926478680307164 3.839700251002292 -0.5422566633795036 0.1123751156183252 -0.18831740550734838 -0.10137652608823006 -0.8317514058392551 -0.7088907005981308 0.4278763998076207 0.048727656944841914 -0.29631867523435906 0.06888213576865312 0.29229284204460043 -0.16287276561864059 -0.10198205301905638 -0.012589014045321173 0.3099382257347262 -0.083819963471885 -0.2509023880953557 -0.42874966047837754 -0.13580537561665215 0.4323210790852243 -0.13169114807308138 -0.20141028190430482 0.3474417202329563 -0.3235287119683174 -0.46876085224476094 0.049186935880431215 -0.507163792535933 0.3291185000178201 -0.4825123120042355 0.3810015423302347 -0.40471823403628987 -0.3392946967102417 0.23880945454532582 -0.4311236546429399 -0.011504460214199576 -0.14464404061647848 -0.1536170145951615 0.45757508776283423 -0.047908150514065634 0.3326240461186367 0.013927812027612174 -0.016504643696620927 -0.6703370328076024 0.2628749502453889 -0.050544631547108726 0.21842010364085995 -0.03901121680011049 0.5349995630702973 -0.22997781560781472 0.10195164694897539 0.10512121402648664 0.2707292970734934 0.8516702941809727 0.20886937556535018 0.3112713563821501 -0.0776960129247856 0.19323407072358847 -0.3032803027610794 -0.3510747150976018 0.026197344707925188 -0.2775328049354244 0.06592151782579693 -0.4809377961707962 0.32282797537552427 -0.23764118550013671 0.2852022585776237 0.048164851210716314 -0.5731135595688068 1.0823175379806447 -1.6103696034987227 0.8935962058182928 0.20930593493496558 -0.47883671447035775 0.2025210334188916 0.26831898745809146 -0.3630150114173678 0.32902345561636515 -0.1453166899294902 0.06656670518118583 0.4329809490704206 0.11407564480767572 0.16470091717694138 -0.3391580931677022 -0.17726606643425655 -0.26222806400382853 -0.4240420526951771 0.16074444384893113 -0.1473942585197807 0.6870586139948281 0.0061293769238418006 -0.16268263684680132 -0.10758617194833588 -0.014683983784957277 0.4329967399173353 0.269226136747922 -0.24791409215709578 0.03822476280753773 0.4016799562038149 -0.25782568343758516 -0.12717653155149095 -0.07652823098299724 -0.30748312004652967 0.5636573324919344 -0.13087648112909434 0.7007662789828648 0.24352646152836588 -0.39361699647031617 -0.36844709100510886 0.2000712289476438 0.16061714926686044 -0.03369163825261006 -0.3008098908144043 -0.1706282359855562 0.6807321721217676 -0.3683629942832551 -0.020530793893886377 0.2047925346606592 0.02861999808185529 0.5662046743554675 -0.019587322144652156 -0.03250035922096842 0.17889179118110465 -1.0774163842667908 0.6100305372361005 0.5754446335320029 -0.24885737128494206 -0.378421977046275 0.31824270106140434 -0.30049592743379355 -0.1356135793050191 -0.5812166251259117 0.0003221067578598885 0.3540605150058724 0.6788635755663098 0.02251904998897678 0.15077208763631483 0.38933205656225023 0.12182060709436104 0.023068583764183997 0.37841459469207733 0.8617112655360875 -0.865835857245973 0.4792629798408746 0.3512306839723719 0.49584053028191183 -0.04303918335648074 -0.3000213891078687 -0.06721223898718164 -0.44024979571109923 -0.26436754484443803 -0.10187244192255811 0.5824497795867585 -0.21192646735195664 -0.054738114099249044 -0.870187909866884 -0.4399882984637311 -0.5780029047635683 -0.14536229855118402 0.9301233916430607 -0.19884942105277126 -0.17470942816435278 -0.2755974104846 -0.40542819199696517 -0.5698568472301923 -0.38955725913840233 -0.21667985031515832 -0.7240985814726234 0.23956920248323568 -0.23197286379139168 0.7065898593281855 0.41257182478425386 0.13762964069579847 -0.2890774914973622 0.03290188494568901 -0.005394389932119818 0.5542690707798957 -0.011024061664683636 -0.08708351381619267 0.3802807419688896 -0.8371852535666778 -0.2820251352657793 -0.00814382169622944 -0.15279667608752107 -0.36493540145219616 -0.28953047969497864 0.21682874503965321 0.4390874584383835 -0.4632401311614199 0.2687238531696076 0.3086006139987887 0.2782829008277368 -0.22342860132249698 -0.2729696202031948 -0.837101981417529 0.08874714219615512 -0.229622567117642 -0.09498872286576474 -0.337492039082594 -0.12314852420847 0.03431320457939911 -1.085220590882037 -0.22366873807332152 0.009117903723406911 0.593204887008553 -0.15238152966856663 0.1355256459824774 -0.2778745424060181 -0.02288217923352117 0.2636523623854985 0.06511852647935293 0.8878650440958111 0.20230621534598942 -0.17915917647291357 -0.7312854298852363 0.23866025299572044 -0.01322710061744417 -0.36070616051696464 0.2428056074868927 0.18579168606342883 -0.46876482644609946 -0.6465949990695292 -0.343654840697441 0.0033569270484449243 0.08190812010551585 0.15785978878880239 -0.2131712746440286 0.22822043644136283 -0.3745008049049624 -0.10088518236759902 0.13199546948327237 -0.13316877983372868 0.04387881517120458 -0.2861102140284018 0.18320489808055937 0.11215284690218327 -0.7666573613710826 -0.4741789756486144 0.535765451871278 -0.360731606469364 -0.16734333651642624 -0.03409352096271402 1.1493464796904658 -0.6648648730605498 0.6072808104165377 -0.32531134767265263 -0.47156201925352365 -0.303674953222417 -0.15300895539573212 -0.019439403553047352 -0.013669040069465371 1.7087453338385656 -1.0814252589490154 -0.08796977390561173 -0.21843695677266414 0.2972221748236283 -0.17598584226560557 -0.11221092038066591 -0.3352324704962217 -0.11538526426939252 0.1956542733495822 -0.48667640367057496 0.41215697100157345 0.18985863634181552 0.59817512670681 0.5313103570565907 -0.5009590469416714 0.061453213301191384 -0.02792125721108127 -0.3259660804249456 0.2393161462054795 0.5801897535992856 -0.07354233586169136 -0.3844848754993547 0.7860825659611111 -0.6334390514332836 -0.14374928100735898 -0.03869912571341058 -0.2890882571362324 -0.13629243320398193 0.028834609527468004 0.29654259768920865 -0.11350385590342014
CE$$sym$$*$$at$$KERNEL,$$mask$$MASK 0.7056711178044425 -0.6711903816490017 0.8861422758036899 1.154102394436629 -0.3028168015644595 0.42502213394839206 1.3889138661215952 -0.2609098971138295 0.5748274681305909 0.8273308360354058 0.4042395144068088 -0.5443584501930644 0.6377562158204427 -0.13370916209825529 0.21769834877110097 -0.08761465299303467 -0.2943360566997094 5.504958814818593 -1.0342073194169628 0.3138213313354802 0.062183671216512915 0.6223233824189016 -0.9199846993563341 0.7394750747807786 0.1734488181326253 -0.9230523295693396 -0.6343133417062903 -0.620932597053119 0.1864785865957757 -0.13564305791983253 0.881794706278137 -0.4727541007437365 0.35714128521558525 0.8340521095704208 -0.0283601987378512 -0.10604833735269431 0.49660307111837765 0.8287948567259616 -0.5498502321276061 -0.502485399477858 0.47305641083887484 -0.5302465447136577 -0.45691230971866903 0.3266790113540128 -0.05353577143998609 0.37712073917042316 1.1110389519378632 0.8548237117078027 -1.2936060592693996 0.4852890205317921 0.469598353368704 0.2712437604623674 0.7617417544810542 -0.25676083731751076 -0.6570143157196318 0.7873163221211106 -0.6185267784229381 0.98175425142245 0.06854092473428113 -0.24965934471171386 -1.4217135490861945 0.38118265820934705 -1.266972532263305 0.6666908151595924 -0.18206146526032346 0.19244876234720915 -1.0042110111621265 -0.6888738054136098 -0.09871732302990299 -0.8704690499197199 -0.2913327040370334 -0.4477434296189894 -1.327219306195568 -0.47156428954015833 0.26516479668305093 0.9880641628485404 0.19169647583729543 -1.1285005365208818 -1.435699330828386 -0.11453517472255842 -0.3244017435585679 0.9251105807258275 -0.8811549620960701 0.3620264890635093 0.1966850840448573 -0.5496103795553016 2.893563222964947 -1.2635171210132299 -0.7353128258447306 0.21719173530144942 -0.9956347074081667 0.9307396867896858 0.5439283014112354 -1.1995160839213403 0.5522674275484353 0.34702565019814846 -0.4160569152025836 0.30897633260694063 0.5439022066860172 0.24323074287464191 0.34918098343471443 0.6489247266968228 -0.10323577283168933 -0.30865987497825514 -0.1769196071388509 -3.3170484459051566 0.1770584632530299 -0.5135040525898936 -1.1266786466832601 1.3527873077763772 -0.04716473930496777 -1.3391106070155627 0.7161724098120635 0.8673590891071439 -1.4252006632059004 -0.6655050546645682 -0.6217524855750585 -0.49212751428048934 0.8812711889035604 0.03484703121944144 0.24074378982859773 0.682574507116424 0.11194497205117908 1.6854543892438456 -1.1171726013532353 0.2751890041593075 0.09888663176336901 -0.36983713005771 -0.3032662172481813 -1.6252305538376177 -0.5711226052078813 0.2576183584519949 -0.3520709607693996 -0.08246777869951763 0.08665525774714089 -0.2576748209797244 -0.5943441554638637 0.3792770084385757 0.17996484537481905 0.21218525717813536 -4.753425713025069 0.09633726710604906 0.19255941651962885 0.24515172864817247 1.420621511784858 1.395980760629917 -0.6147858871025772 0.632903858602514 -0.5285388033395678 -1.3901880143021759 -0.46688868950873985 -0.3635419496721409 0.2411767728137758 -0.3960219939727152 0.8814297665556985 -0.8228413920158566 0.43567055532891497 0.06414978883049945 0.5173612741949247 -0.098293468063859 0.4091567221589782 0.3449072290758642 0.768581012817049 0.1419533407599652 1.5014977333360142 -1.1391189439896192 -0.7897575144227333 -0.3821340091203336 -0.9092237328125966 -0.8318732834868525 0.3378753090556336 -0.36826694688681927 -1.418210810712651 -0.8560407057104442 -0.4441937111311851 0.04197336099785645 -0.2828890722652864 0.5102369125487974 -0.32351641728056735 -0.6011089274868253 -0.6271899338536138 -0.36734280483373627 1.3269698177234297 -0.776472201189128 -1.2208616980660212 -0.1324355057246532 -1.2635990475620915 1.114263808636451 -0.825302102902389 -0.008430962576114587 -2.574857788683547 1.8671694121292124 -1.6158152830189434 0.7357813598119413 1.3781124230491248 0.522756662257199 0.2006685064842677 -2.0317761917214563 0.39124692523876214 0.27699795580661923 0.16521422531500113 -0.09559041284182349 0.12047947018216877 0.9131925263177719 -0.7604471152992758 -1.0872352227729571 -0.23816021459445644 1.695734984250223 -1.0341673316936424 -0.2283768445883309 1.190223790651665 -0.19559965550693278 -1.0590581774881385 -0.9864140899874494 -0.5003593259373116 -1.139931603297319 -0.06234011074449386 0.8657786291389972 -1.7284568092712331 -1.1832878000704634 -0.08585199768726903 1.1011824213170502 0.21259410121782985 -0.9260283266038507 0.48168950578879943 0.05774521232785218 0.6575065293359215 1.1383846143985328 0.3505528462535849 0.3440929067650871 -0.3609214979835424 -0.7828389075118448 0.6069447359748175 -0.10515528780452178 -1.8460570512707668 0.42386359134848917 -0.7295475989382519 -0.26045038574869456 0.516946441757288 -0.10252804508790814 -0.1948274635537895 0.9025501749007279 0.43024193240950226 -1.2502794232307228 0.18589474776595935 -0.5020650361970264 0.4100314855538621 0.2903324759314782 0.9360509436876885 0.4684384602808444 -0.05057274419199784 0.3566329075251893 0.0001120258828121029 0.4801434365730752 -0.6436593301533946 0.6294489885229044 0.1900969345735843 -0.10986373634150237 -1.24633591822742 -0.00047113870044965256 0.03349837807615025 0.4307824126849341 1.1986485858073708 0.28957419131240036 0.8000234679905047 0.45310518113001463 -0.5829597959721553 -1.305890782343809 0.7150733496923629 -1.4168423195682722 -1.1075841057472033 0.9425716464737695 1.3574567547348955 0.7466996158336313 0.12933480564852373 0.5007403321380839 -0.43115483324794945 -0.35299452688089605 -0.6218670879340087 1.0139815608987675 -0.5705163228867437 0.9188255825867754 1.1221612026297592 -0.5211108090634857 1.5120417888913895 -0.3143754610004655 -1.000535935365934 -0.1987066783345108 1.3704416632700158 -0.3499745036045394 -0.4469455307812811 0.7368987243551423 -0.4880388232480029 -0.6996952565707275 -0.17968067113721897 0.20994538599207746 0.05890803996230254 0.7920764953260699 -0.30554006173440085 1.6012876561784561
total$$of$$*$$ddr$$error(s)$$detected$$and$$corrected -0.37206485570272035 0.6279927963287089 0.08533139401859499 -0.10589345825282577 -0.3309056280894279 0.3279231203986225 -0.12004354701276493 -0.1408490610450857 0.3525867946473743 3.2309229983668857 0.39937725346017094 -0.22215803469954912 -0.025782163590536963 0.02672949742642643 -0.28067605436734755 -0.10653059692016427 0.33362744466957506 3.968480525193952 -0.8317534935907087 -0.13408554228385985 -0.06532079753695133 -0.21229647386940226 -0.3306778536502045 -0.7369782337456406 0.30344349835736695 -0.542103265121107 -0.3464525370498989 0.4349416671729714 -0.0780187222341328 0.504971949845941 0.26409019751676527 0.07876184122474114 0.5753395946880727 0.2610323086568838 -0.45817828925801485 -0.18913112596874887 -0.9925410723671491 0.15608903262688842 -0.10632881327855528 -0.4870539062101086 -0.27255858781586356 0.3548420769311148 0.0950283142961015 0.10530668752861104 -0.06473972021891967 -0.6633851564842783 0.025066571201695163 0.6227594325843244 -0.27522212148609176 -0.19725051314639805 -0.38499122604891556 -0.3021166585182879 0.4808100891798217 -0.2721437235878565 -0.1544040006266993 0.09886497562509093 -0.048612916069917356 -0.089443363931424 0.025575633281769074 -0.22523289078365333 -0.2141416462480169 0.4687243278139668 -0.6557504243158563 0.4493658804487697 -0.20885140018807402 0.2618247742800244 0.31879608585071206 0.20542113832934658 -0.24904046980629868 -0.2233949443496943 1.045162681857322 0.39446906489230804 0.2661456618531225 -0.2888673721998947 0.5900829801578374 -0.5006575170583607 0.022591905618465462 0.05170274189573425 0.08887609106410549 0.4249354687768691 -0.4356151135008468 0.3443437262700716 0.06055692243300863 -0.24570436117044386 0.572412128246598 -0.4061648489222296 0.9572669583173805 -0.8118566139561841 0.2044356056949719 -0.14114414953166593 -0.21864082654445716 0.2775459802402767 -0.46522130462261685 -0.3345093851641849 -0.013007893818375471 -0.3199595877771048 -0.09864722944726263 0.19098410294010862 -0.2619814860491406 0.19971343222901777 -0.2522177056584374 0.006445110370870609 -0.28833250151546075 0.20831666090703607 0.10241397165358944 -2.0912562396481005 0.5232093919938555 0.2617507770986487 0.20929754359740302 -0.21426974836377202 -0.4397314811545299 -0.21414715249712352 -0.13657078103418016 -0.0586708860520285 0.06336645456957697 0.07619526878546679 -0.0739248836987375 0.5134978114184936 0.09616307395474012 -0.24888236506261313 0.5457008343986924 0.2504763112255007 0.19285303257784805 -0.07705974420127687 -0.35287329004774587 0.08031598170531962 -0.41415225050658555 -0.11709779970074499 -0.0906506312301764 -0.42361333939620227 0.25947550399218466 0.375349635827509 -0.31593094189604765 -0.019861280002970723 0.6354157431148204 -0.3948957091653448 0.5625927299479397 0.5001190688355268 -0.20682945566017008 0.18683494487918068 -1.6295099509151414 0.27674633772029555 0.3850551318153414 -0.12454348086353972 0.35677362019556014 0.4459116418677214 -0.3392508808867971 0.02592151474832631 -0.33744916196967567 -0.1479535194877306 0.5035913906169194 0.09791437882803011 0.39258218764099395 -0.01926310852428656 -0.3198909025874197 -0.14162751444241162 -0.15462730529535434 0.6441085133304438 0.025461931518621903 -0.6573934390794078 0.27953916453565303 0.08409043495939808 0.5032095126147137 -0.0856659308473837 -0.9907964207395914 -0.38099668201264986 -0.060414141393665494 -0.08465700309786586 -0.27444423978405025 0.6112462247568992 0.16793551227867526 -0.1873495922022692 -0.3089895680718563 -0.4197988815345237 -1.005095674953293 -0.08777941061301969 0.13226152362452573 0.026582685012771667 -0.23039253090304204 -0.16633871851630808 0.024493439699809494 0.08577845418138168 0.10351158273104283 0.2570962301994138 -0.6084363190936094 0.12414978296528775 0.12142510543653132 0.1799707467830344 0.2706622004186984 0.22516875106307993 -0.4802473361414818 -0.05043872412271997 0.12157806030488394 -0.007567746080287145 -0.10852705224416498 0.005356034917707225 0.10068007210902208 -0.3886406384630833 -0.18641971042120553 0.2687361915031587 -0.044691432819052565 -0.4962710044518532 -0.3442219737302579 0.1820584475582975 0.14645795178533866 -0.30816849566384896 0.2335634665295436 0.6538818988480966 -0.020816451661518715 0.05304994980625863 -0.044240803001493655 -0.4833933754372508 0.08599518986873364 -0.5883443523488713 -0.054782442433572456 -0.1842510490157965 -0.5572760562401579 0.056345522445262294 -0.1440419806348086 -0.03225643729445043 0.2625531152194205 -0.028255188943486872 -0.011397188181022928 -0.4152341642926018 -0.22516743086530414 0.009858888465637927 0.6171228051692819 -0.44136022902098415 0.658345539928922 0.00012529723704829757 -0.2632544885389955 -0.21420283030071077 0.4099307448564682 0.47183691677836126 -0.3688042836282095 0.07465396127355406 -0.07484029964405636 -0.16745829302107113 -0.9365644336094069 -0.34532371570752785 -0.03279877819330751 0.12629056696394309 0.11690191151754029 0.5740860323176986 -0.37795604550410855 -0.6077870414876761 0.22037974294474344 0.0733655181696607 -0.022259444606847756 -0.3665633340317309 0.05897945287075707 0.2971803097301141 0.7225285616433552 0.08591188771535717 0.042956668423254296 0.3852547661778671 -0.0667426520409506 0.22404219135479045 -0.17048909501431586 0.7549538573735921 -0.1327586231219892 0.4695294220881141 -0.5426516617560723 -0.10203121348597366 -0.013591191532761624 -0.3538987976783124 0.1462043803155291 0.13585883372070945 1.224777829030895 -0.9886826839746915 0.42993130336242746 0.5160344244699566 0.11997254099399492 -0.17004707135086525 0.1754129741718644 -0.031811717769726994 -0.1608172928832998 0.22123351498103255 -0.23011017019104538 0.09193605860005917 0.08201911808766733 0.8057222256978571 0.4696570730145947 -0.4844129825555712 -0.03211933695202406 -0.22345663524239864 -0.3288144411058924 0.31846723613800726 0.2937312870387332 0.07265885907336839 -0.34565367911903383 0.5666758936029009 0.2954618890328539 -0.10004969005822324 0.5168457058930132 0.09375591630702917 -0.48419031412040175 -0.37237384169236976 -0.1254538896771294 -0.26131996827237947
ddr:$$activating$$redundant$$bit$$steering:$$rank=0$$* -0.2137041475768193 0.5435850639253622 0.20095080123190634 -0.036534949718741085 0.04604968710035913 0.661204181204443 0.03384505221251662 -0.7316271814255123 -0.31338097733052817 2.215344977091116 1.4832004792107643 -0.4633963457980942 0.08132904232647578 -0.3085246297953596 -0.15604424869322694 -0.5316833664705689 -0.6622550269610507 4.701131695804327 -0.7679048368230994 0.032600312902744885 0.44468934384605396 0.2039645037597832 0.63711352644459 -0.5380704096859966 -0.036714650243907125 -0.8282109233974131 -0.29826983222403175 -0.6910409591482317 0.7578592545106002 -0.32800178577016853 -0.017407019747724226 0.1946287420841806 0.7094441777212588 0.10529228462675509 0.3869579023209778 -0.1723863450967017 -0.316951513951659 0.22461422062934738 -0.29433486944085197 -0.7520064832949754 -0.10855204649165118 0.15457243807205376 0.24699044398750106 0.5289652198512461 0.7471137596908144 -0.3003084339091355 -0.041205115468305575 0.24747246563034667 -1.0200264560985512 -0.32227430424325854 0.1302915731383661 0.13960741372233051 0.2794581183283125 -0.10601182749859685 -0.632901665258075 0.10644809121745823 0.08340052414673033 -0.362630647121502 0.08169053472302083 -0.7830937667309504 -0.07839861078886039 0.7878967746314659 -0.13370758133367838 -1.3558152109634165 0.36738573267603314 -0.12124923390168435 -0.24051839002318387 -0.4172129761647293 0.01591745261684029 -0.8528809097617387 1.7208122119383584 0.2220699444422264 0.06894778344160532 -0.9091654974717023 0.040179296946640644 0.1442571471417901 0.8691536175447194 0.14598530584638186 0.018086321775300746 0.6604474755793149 -0.689388237156543 -0.04418441684275882 -0.2498233599147216 -0.240501530092421 0.4006173605293809 0.2916949065959678 1.4827267327657032 0.06912146227043714 -0.06164586384657078 -0.47322712912013476 -0.06711246646087832 0.3295813054496903 -0.5444169190490452 -0.3324002789204712 -0.5873652237670142 -0.016959860575317287 0.16219135453441855 0.08206433061846724 -0.06743960045766119 0.6568972873460566 -1.1783335878801766 -0.9911104259781479 0.061713902758730926 -0.05030697751631762 1.034880539784819 -4.203894479444726 -0.6129964338691044 0.45067486239031473 0.1335819735614842 0.4525907258775246 0.09960824887652066 -0.9733081900746259 0.25450214907387353 0.1213203801281918 0.14946823623800917 -0.03320885707474628 -0.5703666109617848 0.4347796440620083 -0.8884619676517342 -0.4086111075070756 0.30704459870485673 -0.09796593989124927 -0.027040702209564768 0.1608490572044608 0.20874214047659448 0.3612645245640853 -0.9186361128237485 0.3498655066541096 -0.08274127232169311 -0.1787693590439427 0.16346922967188734 1.0488512730550201 -0.713242159178419 0.2161442300574125 0.3865356564277369 -0.563728518997036 0.09757099412165333 0.32900427352514694 -0.3746203233069311 -0.38648455431150774 -2.4041605319920354 1.0333173919959362 0.09644964319301047 0.42171949499633116 -0.1412433167017767 0.5710794235006906 0.44623060591748903 -0.2754469821282025 -0.24054267101892174 0.045707193567033004 -0.9843455282979251 -0.15350525197878767 -0.07667855687134542 1.0118768318059082 0.033625925682096686 -0.15732552906498737 0.05823635794050738 0.5715305787344723 0.24432427401121182 -0.9250187987118799 0.14600240054724187 -0.6454705398386869 0.8545847219752883 -0.5512288818217301 -0.8891335014594669 -1.0062744763604097 -0.0005944080229698823 -0.07531698096794442 0.2625317736284068 -0.3904428215346436 0.15870883566917302 -0.3131742822078643 -0.4441577836414896 0.13529240467895495 0.1655853265332113 -0.2888830630193519 0.4620637711226956 0.45391836502607597 0.7641403159017275 -0.13810483760158604 0.20395629219893477 -0.3014138821868428 -0.28119942610062876 0.29104495058767965 -0.26773517461355734 -0.09182068301997287 0.6534673837511407 -0.02757152257941045 -0.6406301091844283 -0.3780129405477455 -0.0849110655116692 -0.6180660418494617 0.07890238824424534 0.21911269494384078 -0.33262778318312125 -0.44414400623779576 0.5843834954219026 -1.2567674447274049 -1.5312787724188028 0.23363157587368058 0.20942204410218865 -0.48237282455007247 -0.02297577899134051 0.32893788900862314 -0.33876988730786944 0.3621473167953812 0.28034482757877965 -0.11732002891067694 -0.0548101058044725 -0.4444192631861888 -0.04076552868676278 -0.3511252257314128 -0.24173620124880277 -0.29578603499919254 -0.12088299420866622 0.30502619659029573 -0.4718597433398965 -0.0795856293001071 -1.166440656226332 0.6795887837718454 1.181817617509776 -0.46223478800638923 -0.08900448451241186 0.18628801798788755 -0.05850013412776978 -0.8941042998755941 0.5858854821565346 0.18845803360139118 0.06944772095007985 -0.6796429199388246 -1.3685668243856213 -0.7945879521071251 0.5163713035027732 0.6881518255354079 -0.06477824078331178 0.13594390946316254 -0.24594539179159144 0.3492104068030174 0.0989554149373738 0.23686936541968034 -0.018559769581525 -0.3035485068342846 0.13833721546082386 0.49713567051748436 -0.9537170797661232 -1.242591585956118 0.12296114712882752 0.16267509705794936 0.8228370849753663 -0.24922306188979781 0.6047470607279755 -0.2857976239458793 -0.2596866020901143 -0.3885267799273968 0.10398749903850996 0.2727497982951735 -0.475929728278335 -0.10474694455631958 -0.4278575205107028 0.6033434437451358 0.40802214833705813 -0.27504156532461593 0.04654817504068877 0.4463730503048137 -0.1273384995149116 -0.5927224731348061 -0.06328682003413622 0.0676022409891281 1.4231055671253763 -0.6438702988570862 0.7431160329820667 0.4617892614685915 0.15782679409171088 -0.21650277050757527 0.03411685525170215 0.43110174925990014 0.5460894398570693 -0.36096600949003627 0.2252947116449859 0.34789302852954124 0.017376976250284226 0.3278929726154881 0.798171448079375 -0.03029347242889067 -0.0362030012053934 -0.9464791862143105 0.056257903137415 -0.5581917928526315 1.0166110778333113 0.23136208455671148 -0.47301091032173725 -0.16683435102128696 0.16072938186033933 -0.2528004829378753 -0.23746418490433127 0.24613012684015184 -0.40348086948909245 -0.030620662382518468 -0.21279356152896356 -0.20941907379415875
ddr:$$excessive$$soft$$failures,$$consider$$replacing$$the$$card -0.435190251509151 0.913009344153178 -0.3730277599435095 -0.21957028515270585 -0.2934938448577276 -0.07485724908628244 0.24418913694445193 -0.10865509962838993 0.27711045403427365 6.796906420278297 0.7617977726849129 -0.7633837210681176 0.19204285347555514 0.7459237103338427 -0.44370712941370977 -0.8335830250675512 -0.46801320446273176 5.765108657029291 -0.10137228552263941 0.8137850801588847 -0.34242751996071014 -0.33834012206443975 -0.32865924052665463 -0.939612934764726 -0.5150951095591084 -0.2994699951136418 -0.49881281139690675 0.16064204616786873 0.5008215711189357 -0.08005404894286339 -0.5059076725392012 0.32759373794178653 -0.6336713364661123 0.624884195330606 0.38823402679233676 1.0517727440571445 -0.9527257649337746 0.13509938696188084 0.09138015106357816 -0.9879113436138333 0.054971283558383294 0.7103248523081968 -0.18437447888859315 0.30269084026881554 -0.5567624602549957 -0.7219656172592593 -0.8123585076963982 0.16721299225940595 -0.9524267298011038 0.09316721427517669 -0.20095141024570767 0.768685796805942 0.20839949673843955 -0.3015913324617927 0.5606753607421495 0.24373025881774552 -0.3927568240955358 -0.8583432364632184 -0.643354910581872 0.1618667208380477 -0.27242460533631013 -0.39501343346852785 0.051490193183626534 0.17256752413700607 0.6387090438057741 -0.5316443939871288 0.6542343812646958 0.17262414175333007 -0.6766256452964788 -0.44520062106810676 1.4606179674544248 -0.04083332160957971 0.018075985933310647 -0.25095811547401775 0.8852090522664158 0.4555615220482129 0.030432916492037082 0.3170427923801794 0.09910816519900892 -0.041009206016377586 -0.9340424288680483 -0.02897186557794662 -0.2331759983484481 -0.8063674701456983 -0.5275857570261843 -1.0815720578803818 1.3571651361679102 0.8145799592747076 0.6563935757703452 0.09432731481637421 -0.04258020297313152 -0.19795660296973383 -0.1219225021493298 -0.42740385748483595 -0.14890026122631167 -0.1340418963801859 0.41762180328890375 0.3025650799997278 0.2206712520392233 -0.4470150879147988 -0.12592824928274177 -0.3759183043372478 -0.8037343032577406 0.10295628062243589 0.5493295599166272 -6.900782790568375 -0.26094076710652536 0.5763764482260438 0.169545088165394 0.09440626962966828 -0.6817848943412236 -0.6526463382217513 -0.1174305044577711 -0.9008011068344633 -0.8081770001649475 -0.32692618211112834 -0.43657938081414766 0.05726647790093185 0.6256460825428797 -0.12746547872706987 0.8062997716371813 0.46270981921994336 -0.5183924315294501 0.42263491206701026 -0.47904479709651254 0.09313689911073392 0.28327546542123166 0.766892257868665 0.372558999032292 0.1143456681558742 0.09561191694495501 -0.01872975540964217 -0.5561568744840577 0.9963769048586268 0.2986455599705832 -0.16872898634681044 0.454607831060543 0.2156270845920365 0.409131984080012 -0.28751577030161013 -4.147928800898308 1.073991573955843 0.9495727403872966 -0.02265452704440507 -0.48360724513480596 0.492121999777745 0.3945873559127756 0.22548177248677354 -0.1058270372045912 0.19944208291224735 0.8909972190667517 1.2108175218481152 0.07876817381841793 0.1897884098221645 -0.1818106663091515 0.0802167061961313 0.40883799905899537 0.756371808208549 -0.04060474599265065 -1.2769515954506874 -1.3547399379769314 0.7424681446494152 0.692260826221435 0.21637091668062464 -0.7585863749786601 -0.5979607880403867 0.27518652379307645 -0.3488768209227366 0.6759142892600261 -0.31814736330115023 -0.6724547051384953 -0.8516508386696322 -0.17013308920785292 0.13031725083226006 -0.12736959574350348 -0.04922117447550159 0.6998609506785586 1.2814135829102202 1.188941658050229 0.2534897278495158 -0.9640844828551504 -0.9787761021110609 0.41453424122935767 0.07809175445337409 -0.09916935460617016 -0.016174828758214535 0.26027470414932796 -0.42730441441093037 -0.6698029627032192 -0.44378615393186915 0.3374127875116087 -0.6478721377990493 0.354215696141152 -0.746236153630593 -0.45712334497533935 -0.31707050074860255 0.5289606792705388 -0.04342129905997054 -0.5915024022375613 1.2158282952389357 -0.26176003031449346 -0.4250833123049841 -0.29921293886143546 -0.24693195007323493 -0.042787177073961416 0.011132160358406994 -0.014914064074611995 0.6397946501639357 -0.028637751146617707 0.6877832513727624 0.36211302752660696 1.0353796282945233 0.25641948665951286 -0.893647443220721 0.4860195281632265 0.29403982272834894 -0.6370518063697861 0.02371921250535046 -1.6981427591987277 -0.3741611105671636 0.36973053750931023 0.3893501504877689 -0.41647037071510296 0.3818181431555497 -0.7628158062961544 -1.1095069331417018 0.6125793053371014 -0.4801300712013721 0.5654641216142766 0.06240549837532163 -0.10745867153566845 -0.46730448441546746 0.6736064549615748 0.31362569630888065 -0.3804813913698784 0.8288302539591298 0.6870106188834585 -0.1376274060273715 -0.5463302373818265 -0.07175133283026253 0.5900494999138878 0.09650071193810228 -1.2704388778193638 0.7574499395247151 -0.45791842132856964 -0.1199820598924663 0.4058889434328135 -0.5873577349215355 -0.05743564588562082 0.40393825088510793 0.07598538587513426 -0.0007990971019407322 0.22159492425724975 0.11913753834563637 -0.5505646973143555 0.5375643038504895 -0.5646745152052359 0.6515250645923863 0.30228566282697666 1.0931201258577046 0.49922795606878273 0.6375755665934679 -0.13435795191892957 -0.3067538529255802 -0.2898821679993445 -0.050141563949801085 -0.5821387272157902 0.4147987536749906 1.5524441249759997 -0.4619694923781435 1.423443661519409 0.09697732740727763 0.02964350134154877 0.008257391515531537 0.876975142383445 0.33132540204583233 0.20799823450306498 0.6111682686937994 -0.48191125574545945 0.43318004898142504 0.11246842423958393 -0.314624501730843 1.1294460497718688 0.15041189855729217 0.12819302408807737 -0.32882152865595293 0.2338998895726213 0.786155772465749 0.9975534293414269 -0.7484928529179524 -1.4424246335435082 1.1335849178920259 -0.0011108743512479348 -0.4853184520509099 -0.5045842337046489 1.0086954706362448 0.30436386802892085 -0.2165802941986889 -0.09497147051815681 -0.14609250040425228
ciod:$$Error$$loading$$*$$invalid$$or$$missing$$program$$image,$$No$$such$$file$$or$$directory -0.19153472849034603 0.21552614510304208 -0.9507116441910478 -0.053600763748283126 0.3781777745910273 0.7006499953666016 0.264597585067523 -1.1673223519182112 0.030687029616881495 6.270074181145797 -0.6272221582139088 0.05415427440485368 0.15595992059575742 -0.3234925729898268 -0.7488765517021292 -0.419790974138234 0.13346654760113597 6.392088810368719 -0.49854396812618473 0.03463701104876559 -0.6468152130933514 -0.6124034780122444 -1.1479782783974743 0.1515450439848473 1.127618589708851 0.18423965959051514 -0.24762848956511796 -0.45630864327478626 0.7391472284222728 -0.5928947920004622 0.0733036719630264 -0.39562624978199556 0.5018673576747827 0.06409223040523461 -0.5914514847024184 -0.33944551906713094 -0.45657225815487906 0.17162222006720668 -0.05899327967353111 -0.3170291032419385 -0.2521045781369553 0.49579168453343303 -0.3127446197059016 0.02454908849250001 -0.3872829854069953 0.28095340079716896 -0.2445285563663241 0.3208076364383067 -0.005795426567056866 -0.35694255025731014 -0.2830575051009535 -0.29142259762384287 0.15336241501412295 -0.09442517888390294 -0.44609392686197324 -0.08251225019500036 -0.28011544615847483 -0.7514562908367437 -0.4335197390590379 -0.28930907823631813 -0.4037348146507774 0.4677903603568655 -0.3010330557076872 0.989391782268977 0.7782412814978148 0.047134363026456516 -0.03822672124057743 -0.0065196648443890046 0.06325483543001595 0.7624315886547606 0.889538924728085 0.3566521015435099 0.8516161979319035 -0.3242572047934325 0.5594920781291715 0.24778122488632318 0.10950253728031159 -0.2055456409632132 0.3687300078137669 0.7398073014126554 -0.47657600310062354 -0.16856563985474743 -0.36490800965662795 -0.5464204657943272 -0.18203463039019885 -0.04979180052646959 0.8672420101156029 -0.36594889598182045 1.3436185753403835 -0.6175309971963865 -1.2195376720582078 0.5544022028619968 0.37916082029491655 -0.5318302352256896 0.0720558328809022 0.14490942864001907 -0.15963168701328026 0.44345845932408506 1.1274898995115392 -0.2722494996967294 -0.8816766084572398 -0.16105092243337005 0.32885708900308985 0.11502893723024474 0.7306453464379288 -3.1156509935674084 -0.13478553820530603 0.7809157133546297 0.43970632240512453 0.32007242544523445 -0.3082116237394372 0.047081282842825534 0.2717436797512972 -0.1669286453777735 -0.5544613443937854 -0.3431546491109832 0.7750532707717505 0.9833406797219849 -0.6782780684687659 0.10386981770852317 -0.0420756764592484 0.690042877751464 0.39605890016575096 0.43518972501091563 -0.40393364207588367 -0.09871293226058905 0.13532642180684962 -0.3183316843330155 0.4655571740456053 0.39393385608208564 -0.18300577850633992 0.5124170280763408 -0.7604660969106781 -0.1445056885446905 0.5811445299959455 0.000980412357311381 0.14548957060408732 0.04057761443596701 0.11470754018511825 -0.3813156640764795 -2.819138071726137 0.1966279883662142 0.4403445072982588 -0.3901859052044588 0.10916314995555634 0.34403049927457824 1.1400694075953204 -0.4198279846499051 -0.6451496140448343 -0.15223776691103624 0.667754614940809 0.6009184363232166 0.1566996506429844 0.4237722336335539 -0.3933552470546549 -0.09085965282581647 -0.4034675879821195 0.4912251524579167 0.5174427422603385 -0.18154559434512219 0.031184329695409817 -0.36055876363118095 0.03264637864215428 0.22141421949925677 -0.7973062971300272 -0.2273351564304814 -0.16274002819176078 0.5424800910734042 0.3599276269197664 -0.21875775107673878 0.08932691026157488 0.22343020050741896 0.3386912074431717 -0.021844529296167148 0.25537550453708635 0.40083835658220446 -0.3475407914428386 -0.7324231611571264 -0.29978830681895 0.019914000028475543 -0.2543367769843165 -0.43886015987111004 -0.37702853928198754 -0.07611202897719112 -0.9631678668524594 0.8157221457456756 -0.47703453716533656 0.6322865907745543 -0.08554405482510508 -0.5083584038590228 -0.38326554176664407 0.4595016070359712 -0.09149548192833473 0.31121862833785474 0.5458037549854756 1.0123586207821993 -0.35015324117725055 -0.3074337795909013 0.1506406567402527 1.3313006142558768 0.2960864316682643 -0.6199954314418716 -0.3930003442782452 0.3282583679270389 0.5606021478777683 0.10887047086865217 0.24093450938009647 0.18060733722553607 0.18217584056658223 0.7500169148234211 0.15684776900438713 -0.09472692002447772 0.040417091850157405 -0.39675609637078024 -0.16937927854268026 -0.2535724798365748 -0.5645141466219954 0.6981314125498264 -1.5907470871819511 -0.46392168774806575 0.49549765246066746 0.19579256670992007 0.27099223481437074 0.5022531600224467 0.3151072488689199 0.1994729681059711 0.27677292812046983 0.5649490643144175 0.11230397860056039 0.06041681662011669 -0.8324219051061127 -0.42344890625101206 1.1814487641725335 0.850599668814965 -0.08022539730882149 0.32450991261323103 0.6135888317238803 -0.006877580308781106 -0.3097337207865147 -0.3850571721509932 0.28812785618991094 1.0032582905390064 0.18561863674854434 -0.12211338104969048 0.484418356521886 -1.40598753268325 0.2908418318298306 0.3383066539349562 -0.40583194973567727 -0.13229800517610657 0.6199089400574174 0.12850108189445225 0.03674144916409069 -0.6398601007032227 -0.12136153822226467 1.1820840361822813 -0.2061872138588278 -0.37353759146353044 0.49689569516828574 -0.10961815307500845 0.10762375088344474 0.5063587987709077 0.4393376387178 -0.030000303955738716 0.20860088230287627 0.5429496682971221 0.27344405585377896 0.01989641782255011 3.0242121990460196 -0.8792015909946511 0.6721263288237196 -0.02453452450312516 1.0544085336264157 -0.5777508088615202 0.1587181047123144 0.18657770303298213 0.005653004862157011 0.09746081510774891 -0.24834635639763694 -0.28134718722095514 0.5835041548453679 0.41008164963528815 1.2672229930018286 -0.3763430873029312 0.49247370153862574 -0.7987944600342424 -0.9200424378742943 0.19808316263916628 1.1335481273728174 -1.2496856718939704 -0.43915781638810314 0.2750538392825033 0.3577323908275932 -0.06670279004753123 -0.3295869786019945 -0.18301104958755432 -0.6333123715914339 -0.862091814397882 0.16640069545146344 0.04549521930176679
*$$double-hummer$$alignment$$exceptions 0.3706021498923413 -0.06664414125891593 -1.0936489433800012 0.19327031047548007 1.0734182822667875 0.3706948663240667 -0.7983324926513328 0.6029234278787661 -0.15248490004350268 3.809141871918147 0.8870379743335988 0.926061988425539 0.5186335031420919 1.093664518707386 -0.3606770275528505 0.1686244985068246 -0.031253203449567 5.087001182304345 -0.2632557807155278 0.6440408913308548 -0.8383749809035788 -0.15236423422615053 0.5037005845623104 -0.6658145782037505 0.07906324525896197 -0.6306599063156546 0.6272866376096908 -0.05946965874196561 0.03619752542813515 0.22022963423929698 0.5005395711999665 0.543883474828155 -0.20743901634613549 0.41059699554200446 0.6774321317142389 -0.18486643257816665 0.9772844800319895 -0.4621042979034873 -0.34157885419044787 -0.6714245165835357 0.5004891478911156 -0.30688513939697554 -1.026694035032814 1.519668474691549 0.1913458424372464 -0.4121097600337196 0.3107999658448724 0.8455609163841087 -0.41395753966407833 0.38937763878842097 0.34326801869895107 -0.08759172414443861 -0.21569815687030278 0.8278811875436687 -0.5491346946576914 0.2461722183565324 0.539138725833585 0.7981153559775787 -0.6212728024714769 -0.5100924825395703 -0.6297089481867547 -0.31035279788229847 0.2957862394226427 -0.1826601510464031 0.9158939871214478 0.8346719264721214 0.08564549149074391 0.7086464150792682 -0.042312452760256816 0.717801262966173 1.6350133648700895 -1.126389575040818 0.4962341055949644 -0.39310216698539446 0.07075409073119754 0.0611525971176793 -0.4573437212497329 -0.7260483953152241 -0.2778760676419795 0.036054695737393394 -1.7836256650771833 0.7514699894982309 0.33119382479343634 0.025007819875776938 -0.10603181177416415 0.7565764007657012 2.019812454321174 0.9838939698156512 -0.16579745013727998 -0.042652938351282005 0.4777089674597758 -0.07431530032124375 0.11817370832910054 -0.10542865742641826 1.0379000277578243 0.4946860968797651 0.30015178430591527 -0.2506577372668784 1.073884316048126 0.15960533322839487 -0.37478642801033035 0.14365434050914158 -0.49220517698917887 0.07464837781347511 -0.05012332413053816 -5.264555513182617 0.7739027863107607 -0.09943462958978261 -0.8042425180857862 -0.19652903507936575 -0.043565573557242304 0.5884162443674763 0.23735687508339437 -0.710560385966482 0.09447582415906089 -0.05913675510358616 -0.0002070511740775577 -0.1419352910169302 -1.0293524120918214 0.25247468762430125 0.2438892934470957 -0.26751525019928957 0.23842108648749666 0.5264034682454408 -0.3431273626751046 -0.16243059787858063 0.5421131801286441 -0.8485161051638017 -0.9197918087831645 0.08726156311597755 -0.002048261686114272 1.0062540080521405 -0.46905798898756684 -0.5064706332896778 0.36208521222955525 -0.33730536441031056 0.11619884951406056 -0.25623717290767256 -0.1848286533355747 0.1283762185796051 -2.5104717387614124 -0.23359643247216116 0.8685769880555491 -0.3345620225480608 -1.0108081396392437 0.49957479692738127 -0.6484700604395508 -0.5849214822363564 0.7697960883342592 -0.5112107567151591 -0.5332627275978732 -0.1685833089329698 -0.5172689470747738 -0.018546556970636605 0.7082393247128445 0.09109991754090713 -0.16475057102653043 -0.1938852657602712 -0.07546943037203002 0.9465694281659279 0.5594739383704928 0.5258603714613792 0.0481806310213201 -1.2134044631076146 -0.4475135856460738 0.5260924595369333 -0.5756407028428389 -0.5083428947460067 -0.12382233368787499 0.634554882387399 0.14975212426592333 0.5804282000610816 -1.1564174128493943 0.1351096759582448 0.3516834276707086 -0.39484059698652674 0.1643352218411948 0.3853169865883662 0.5738617089747597 -0.40052503875007095 -0.18960697986492603 -0.5151194761533096 -0.6338140479497856 0.5066549481375847 -0.8078361357947803 -0.28026977862094143 -0.4983548893421311 0.6013489382946804 0.057190256718770816 1.5981701767948557 0.450049713823634 0.00837693953434418 0.32588227043444995 -0.7727569099425453 -0.23510765739561124 -0.19893214532528078 -0.03270156439000365 0.10232058533393147 -0.3675984872507954 0.20694352375836286 -0.8463272337580816 -0.4839331861797126 -0.9884694525833579 0.11057489327917613 -0.10051465552819691 -0.8843040718509454 -0.5740812721161614 0.7791670167591912 -0.5643155052158242 0.04867611758870567 -0.10017927423739387 0.9133934064251105 0.44632050781881255 -0.05245953877969301 -0.6134918722368982 0.6523667190201847 -1.6464316466132483 0.7293079276692949 -1.3547636912355963 -0.1274148283284708 0.842608924919338 -0.3429284768435744 -0.8851998835362589 0.40277118136958967 1.5321501479254276 0.4036575426500615 0.557027920634861 -0.09621850399421589 0.6002775144052599 0.37181233492636984 -0.1373022948449473 -0.20502103902250476 0.8677759747677652 0.4004072679627011 0.10539114316688342 0.6422686842581707 0.08788873706701478 0.28688955425944596 0.012730268359731095 0.8105336767767054 -0.18775570893654886 0.20495192071954405 0.1812069398565656 0.9871973221435066 -0.37636745113936965 -0.42288941418770126 0.4073218692861197 0.3122903622527725 -0.09255858451776339 -0.41315085328862233 -0.7728803299812402 0.4589912927941595 -0.15662098496837157 -0.1591657144279603 -1.076977444847591 1.4914055394453274 -0.368989040611513 0.11986952618042843 0.4567595463884307 0.6576075620720554 0.0737544858877286 -0.16743901473979367 -0.1097735340004749 -0.2818780298357077 -0.36999214972929184 0.36329479490624633 0.10475213541281078 0.5354086438985713 1.9281157288113795 0.18340415045972247 -0.040269085463315424 -0.6493752041365537 0.4581133165494169 0.1281158360901995 -0.04393594857056332 0.19191158112808426 0.07376325117507343 -0.13394214857478187 0.009909785375956826 0.16216630434772095 0.20643092110044098 0.38791353411660534 0.31837409541855055 -0.48658769005640384 -0.0891964720045153 -0.947273420359191 -1.4428044446677768 -0.15742971688248983 0.4938599953735966 -0.5757933076251234 -0.1036478108003549 0.28375297621884815 -0.54840661980461 -0.4710468692512252 0.05221822165276778 -0.657812083127375 -1.0353140714455193 -0.023478576227693115 0.4229142509267269 -0.7243481407857879
*$$tree$$receiver$$*$$in$$re-synch$$state$$event(s)$$(dcr$$*$$detected 0.49390049465264035 0.5467497089529645 -0.3305658806750654 -0.2443527526717264 0.43575756431130813 0.26408870847742955 0.44343583965693134 -0.2640422964409449 -0.03718675262989504 4.167651325530446 0.05017276199757412 -0.3861770110930759 0.2248529808319834 -0.38435611838462813 -0.5613492567341876 -0.236142303017364 0.10291446088237488 4.249007068135032 -0.02735500098367223 -0.009182828131647197 0.0036291264461960158 0.12077247295498515 -0.5561306706068547 -0.3824026694532438 0.11824137914120862 0.31104924898090225 -0.46419485278699 0.29210713597695825 0.1682200637018414 -0.06816184772296671 -0.9092809009090538 -0.8927116362302453 0.5595003398502204 0.08649967144204335 -0.18898200901692214 -0.042969773686264326 0.06865379615106082 0.16852507411217826 -0.35276235253882604 -0.5763800407562483 0.4032315942928129 0.20890564000445377 -0.21271020559119644 0.15830149397032647 -0.4574413687634291 0.44108796321479443 0.04483882804476407 0.0652029427423666 -0.8710684820136692 -0.18097407917266722 0.37038821286593965 -0.5323123371472028 0.012234891545730348 -0.19490538659307546 -0.10202871211136626 0.24715526520943337 0.1690933297078659 0.10707141602233675 0.32857979673794846 -0.15015404318583894 -0.26687187037513405 0.828521570725424 0.06037801179547472 0.30452847269541305 0.13473625348844798 0.19510873275691523 -0.16535910313951982 0.00670364314161194 -0.4147137685119752 0.1779894650145538 0.6207421518318244 0.46193212618336377 0.43728308239643066 0.06727352002131909 0.15432607909590007 -0.20986487970404005 -0.15990136374635894 -0.1894383535723574 -0.45310476435197605 0.11812567809723643 -0.2979138135221651 0.6648207022627152 -0.27601889692239195 0.314198648766187 0.026280379414111786 -0.0849328707907126 0.6694458791605058 -0.4299354620632821 0.9082369904095107 -0.2916041654695575 -0.5627666552607142 0.25739737075498 0.040855045573711876 -0.12397372917874847 0.019327164277186587 -0.06222892498472542 0.1405285880158566 0.04265016343280909 0.8410943252771074 0.6215319663825708 -0.19028931791584539 -0.20337679948659154 -0.2771592010487591 -0.48327442058026726 0.07371556552417884 -1.464758543616421 0.5079464936157987 0.4878492737104584 0.004633138138991737 -0.2548685469840717 -0.43433373583155577 0.2931546224949948 -0.09052473838794606 0.2795374575281723 0.21797665096491536 0.43145399185962363 -0.15303516054511734 0.18618128794570238 -0.022808554585733443 -0.21410266351183077 0.0648032669351126 -0.5572705652793851 0.4800829571119412 0.1508707530038557 -0.23605235661359764 -0.46440102813016065 0.1316194339280265 -0.0666042486137002 0.05141940920952737 -0.12194722889176562 0.002708468599444583 0.2893517093997572 -0.36758092383866786 -0.4253434953607495 0.4918304053691975 -0.38980074889008154 0.5361063250299534 -0.27438217577882174 0.4138783700512639 -0.15567133840830677 -2.22700991256631 0.2534807253001134 0.22704969639989397 -0.14967611093998634 0.16136189902361686 0.15030917712889097 0.25488019922472543 -0.029273015297322586 -0.4451550709047585 0.3610445655966431 -0.19658955962088503 0.020031287163559543 -0.4766751375668046 0.41946765139494013 -0.13065854487912615 -0.18352959104854322 0.09169568784721674 0.46807610709572856 0.578009827297135 -0.3706471292738444 0.11439105220766264 0.8414345077253529 0.9425952727088794 -0.1516080183393382 -0.572276681473552 0.1397589691657325 -0.12299687722603544 0.20058664482741484 0.1232582136263139 0.6052479422208316 0.0949939708166686 0.10242362902529599 -0.5696759836952324 0.06240708670532709 -0.5529096556621278 -0.1932193464214486 0.5546561245694821 -0.017991916653113796 -0.4936032111928859 0.2077357485708642 -0.16011468433541912 -0.2102802699122019 -0.399831845566445 0.02730418666781153 -0.6794069881719162 0.07498285428091019 -0.5184338033934296 0.5777452077448926 0.18665296322977715 -0.025062669268038948 -0.32155532558808797 0.09835018583096963 -0.18925918197919456 0.7100475124995891 -0.19753702403164258 0.2371479628179235 -0.6344607892204733 -0.8462023293066376 -0.28446358419906836 -0.0592831504139049 0.036003144542851154 -0.41149105888585324 0.10409352016075524 0.5721544952206965 0.4907664080922774 0.033350882822319086 0.47329644703313756 0.2932654410023291 0.3614550770668634 -0.4650599444940684 -0.28737427976524327 -0.0031649295155562196 -0.03963711768199398 -0.27930986571939065 -0.4732429440779129 -0.06188943455191631 -0.048861342445947184 -0.2218737215579219 -1.0033129777492813 -0.42659442321100205 0.3503373052535402 0.35736200903603754 0.010343690780790164 0.27142668874867515 -0.5337960003281715 0.04524934930472463 0.7454233021094685 -0.02234216354373736 0.18219252965816857 0.63870366868343 -0.09176141949828046 -0.6563299297403251 0.1267610920846319 0.04721951569572649 -1.0409359994822123 0.1588347040490844 -0.4448544193116023 -0.36148631457966673 -0.6143663834196782 0.09632969855825912 0.19934193451959903 0.27153523235200966 1.0479718109434102 0.1163094879809024 -0.0736189505811288 -0.38922712991920816 0.037529232300547645 0.5178378488066966 0.1934815229785926 -0.02800712806060739 -0.494546380202641 0.1032995577291596 -0.25160409662491506 -0.6326392692052684 -0.6571216866453339 0.571382069081383 0.33145749377866524 0.16269518292730836 0.24624035227759739 0.41482036024270114 -0.1779152978230528 0.16273902527362197 0.36926458393878603 -0.12265257162726344 -0.013076685160249988 -0.26245690676669076 -0.11378205346579746 -0.4234204588993967 1.142051288370942 -0.44380737384834884 -0.28532672145465604 0.6171103008786305 0.2506967226193396 0.013998152236473063 0.264833131849505 -0.1351817472815709 -0.16537242142186015 0.13336806760848102 -0.5959402759235977 -0.2674150134624672 -0.2341376228927007 -0.07385277414207916 -0.33895442322538427 -0.1960047024000873 0.23856648213870355 -0.30330111611703564 0.1734726327574215 0.06292379051368477 0.5030272889643241 -0.1247118439737697 -0.5132752663793944 0.5544507968664055 -0.651822930808322 -0.27112642466850695 -0.027460363478594582 -0.5012350929125812 -0.22898153867710483 0.04674162861520517 0.04219156275881765 0.10032245421328084
idoproxydb$$has$$been$$started:$$$Name:$$*$$$$$Input$$parameters:$$-enableflush$$-loguserinfo$$db.properties$$BlueGene1 0.5855184616778799 1.1542674685726808 -0.9761407530925029 -0.1146432513298651 -0.007400857222985252 1.1246327006951484 0.5473661598905146 -0.6160331825698032 -0.469467724647965 5.095809750203631 -0.42552323628571 0.4614167036509762 0.5088383455651436 -0.07912843425156077 0.28702736234590165 -0.09430256057846817 0.2324412135680627 6.6447273874981265 -0.3720197754315052 -0.6787098637931951 -0.6584617099996525 -0.013071811750845815 -0.9227360461090407 0.1748492876955477 0.28295416347183544 0.004867184019032966 0.06524899357902222 -0.2107325016888595 0.13856965202036597 0.5500933345861159 -0.19102426276668302 0.27709143964336336 0.9961021831348565 0.20449903176157141 -0.10945882179115674 0.4763677239992182 0.5614675008899891 0.246321098773356 -0.8585761993649729 -0.7725300663585162 0.7713780525759166 -0.10428253478761854 0.12840918532756063 -0.1511551902998445 -0.8814897030608267 -0.2725749905536777 0.34686537638427506 0.025043694102824185 -0.1644108752956317 -0.7933285772562778 -0.5815845998434372 0.29535880410880144 -0.22651290479424047 -0.12520707473222242 -0.2680247293215943 -0.3587294921643778 -0.45366589348370523 -0.1796642751732167 0.7304783186836793 -0.929795001695043 0.2633758253856279 0.4508017112897498 -0.08812078076255439 1.1644884670774918 0.10709144531175857 0.14892644248095 0.24923805261859658 -0.06363046759482681 0.38593075822130807 0.4594200978957341 0.7066517314970344 1.1414460060888085 1.4123010718255777 -0.3070710002987038 -0.03586530265386972 -0.14636163641998357 0.19802004393597034 -0.2670052937743526 -0.13535029011926072 -0.006950075100883302 -0.12174623657973942 0.5672576353124525 -0.6821894856632493 -0.47582999539924575 0.6003436757090928 -0.2907839451583165 0.7053821950605184 -0.5972613067023392 0.7188053309602304 0.3660742462393545 -0.5543542552218663 -0.16164550829895785 -0.3922094649877065 -0.19102593104192148 0.9755968936522615 -0.8384592206908662 0.42566632459783965 0.17637826122445932 -0.01203245414029257 0.5707553293329207 -0.7745041167383534 -0.17113240983230416 -0.28576324428938393 0.09337511792124885 0.8421501354302727 -3.395211888697538 0.23137689072377718 0.1493798379163955 -0.37862734022742145 0.6751295643098606 -0.91040063435039 -0.6964765697568602 0.5924073045238142 0.6879972174624839 0.41508990635380516 0.03106342356628941 0.1979326374037153 0.38000522406267934 -0.2600581073584446 0.45109067768967914 -0.3649392757622497 -0.2696482342916461 -0.13507144125147924 0.380467584516986 0.543979821604634 -0.563376522001788 0.2592247116351313 -1.095678085861208 -0.10182238592418207 -0.0450953131899475 0.06706580405946062 1.913814695049634 -0.5232590697638085 0.07666054010029483 0.4816271019655485 -0.040630385151811776 -0.06672867234144017 0.4606665925343536 1.2013793756170228 0.18266854437185964 -2.2169276254925108 0.3633323312609681 -0.3077648402912258 0.06296632866684834 0.48521469589347105 -0.2291328810305562 -0.021492309086501987 -0.1844031118489602 0.10262853376634015 0.027477292053367866 -0.024594786973233154 0.32965963269252696 -0.43781783587587914 0.13673843202587557 -0.8332160296755682 -0.5791181387663076 -0.5721587579002855 0.30834434030724545 0.02444645261017206 -0.45691686863826464 0.5756595098845427 -0.013780541947121416 0.15833282237791652 -0.43017508885950345 -1.056088732982013 -1.1749313282658496 -0.100384165390863 -0.5413622532849367 0.6102485475500266 0.006914611141719207 -0.013895958324718743 1.1130900774551413 -0.7165234234455441 -0.735108388910167 -0.08002936916625153 -0.11264169693238422 0.7981560019418728 0.1577101803025936 -0.002541467947864251 -0.344202434404406 0.12595394276362554 -0.35446413474306004 -0.934950419749452 -0.5150268327806855 -1.1968927046878828 -0.6626883187888089 -0.6472468366135042 0.5842935819105312 -0.68319566959804 -0.8007222823059624 -0.5071527388533104 0.8492959951933787 -1.2450426046364702 0.6604936174420117 0.7754718247782945 0.3038240552146896 0.012222656827136094 -0.5637089181388646 -0.6087871055379916 1.0336385226180715 -0.8588107774867648 -1.20397032404587 0.0717988560081048 0.9100449930991152 0.3002417202238014 -0.41858583079380574 0.13600471285988835 0.39977579611448416 0.22973218923516148 -0.536270601493531 -1.0988176170549724 -0.5153660580936192 -0.26196458321342625 -0.10101093231951885 -0.1846765935054343 -0.7279178970055029 0.25567720368051444 -0.05490856900293514 -1.0356893138227643 -0.436862348968398 -0.4821045487048691 0.907265751442403 0.20712243931924484 0.29824800540440166 0.0821008875977627 0.6507544905488724 0.9439555562910127 0.14809961282402273 1.1878566221996518 0.17072259778052143 -0.2446402503953943 -0.550911628692102 0.2239778250689087 0.17404396522857585 -0.15692756116964857 -0.10532038442451673 -0.8167437874826021 -0.06433348565198002 -0.16214136513263164 0.18285767885628448 -0.3468922705858692 0.07512720872296666 1.0862529441212263 0.413060413518357 -0.16179501218652353 -1.6648563467283088 0.36176001748012115 0.15086226857626167 0.03715162118026055 -0.1630905515828244 0.07372805667179048 -0.09581133810094399 0.323580332586502 -0.071885704366409 0.18285937241372033 0.564408028110769 0.2711470424108122 0.40440331657503625 0.23155220697512485 -0.2945119918913334 0.34928029643111624 -0.11549490520662473 0.5912750863058336 0.5933977041154725 -0.27648063851189514 -0.0699309683492424 0.38823927263374397 0.2515575086787486 2.9987454709978203 -0.6188748109357886 0.3267750669772563 0.4556921039956331 0.28088667182661453 -0.583676718387268 0.6559343435553403 -0.965462245790265 0.05518106341689083 0.22205778325588593 -0.41506630265736016 -0.07636380628214853 0.0012622808654421391 1.1335704897663987 0.42190972711672614 -0.018253319016591676 0.28618786773848615 -0.26873086983420996 0.49879817728541387 -0.08997618503322052 1.1143033720251572 -0.5891321705589613 0.2033690953865276 0.5303599503026752 -0.5252919873418577 0.6829030799705769 0.23702012783242274 -0.8846339767975124 -0.8359176077110815 -0.21380297816608407 -0.1947096564134084 0.24800776287009635
ciodb$$has$$been$$restarted. 1.2129767864459138 0.5308342020511534 -0.5323140211481096 -0.04637848159111568 -1.0199153021629601 0.014422860560934427 -0.29196865791383225 -0.6702841874591023 0.006455991818325901 5.76844976958226 0.38076443491763223 -0.32747623502702783 0.3074962709377207 -0.6473325374512916 -0.24522331612175208 -0.9770779998810483 0.25240382227917846 1.6618033151550595 -0.6660683648200154 -0.38644779376125893 -1.073363840020761 -0.718270493796876 -0.037378770028015505 0.633650134581162 0.468386472525948 -0.22860674961200775 0.04978360206227167 -0.9754475390116291 -0.021492245333853133 0.32057948386028784 -1.0130848622789288 -0.8558110173288165 1.178451155360864 0.485909657474679 -1.050783376706393 -0.12023707781379958 -0.4159474059301554 -0.14794726040582873 -0.04498799174764237 0.08281951185629349 0.2760294212230017 0.019759860089447925 0.9006931717408337 0.5750622557144628 -0.7041060464839952 0.8421539934813718 -0.8755999274242807 -1.2756735778437487 -0.48418165530256524 -0.2942686924433035 -0.04732494374368401 0.0969819331782362 -0.353686171625705 -0.4098144499716273 -0.08602303576555631 0.13337795608157063 0.41686515566271953 -2.122064674552102 1.6602406070583733 -1.1904139307739414 -1.2273968672317985 -0.3230983277665941 -0.6020937934511402 -0.026567042522243844 0.01020917927950201 0.42780976342862626 0.6588438151077813 -0.8420601754470092 0.8793521146278251 0.3264744168332968 1.2273333334550405 0.5982198445860315 0.5188090913172645 -0.33644172086549895 0.455853061467999 -0.28000685499880174 0.46358638221881887 -0.3752013765431731 -1.3639545159998425 0.8769116256211835 0.5830006216550999 -0.770897213366876 -1.3580513129568403 -0.7808522641313594 -0.47242969018650105 -0.1598699480492472 0.6492472730349966 -1.07550973759579 0.5414706930149595 1.1730072726241476 0.5693731812191821 0.07515796175779159 -0.31090260655664204 0.7067776800366838 0.47761119971060206 -0.11076569080417038 1.0159631821875617 0.23841980592323794 -0.27337640384950507 0.45341901871390905 -1.045645348393791 0.2005582292032369 -0.23972265652101793 -0.40574430319187343 -0.09169994250416504 -2.8105880947349084 -0.11648843120491044 0.24905075876109695 -0.12577543644326386 -0.026644267962443124 -0.8621622259945855 0.06168619845486484 0.14482190338892684 -0.09890929456401507 -0.398524112791175 -0.7647648109203157 0.913514599484123 0.8980160964291577 -0.13272187201919577 -0.6883239283467244 -0.3557775288383902 0.08869094606839417 1.8090076972862328 0.05279289382263391 0.7753211229677703 0.2270101965670977 -0.5956079705521118 -0.07787243114865428 0.7890558506816531 0.29058174057872366 0.10944924083686705 1.193202940848357 -0.6856797003330317 -0.19053454243219126 0.8410929653452575 -0.5416519629694285 0.6436333462308579 0.5262803167875685 -0.4523444886983088 -0.15453363243812815 -1.8495273731145152 0.19191950403784572 0.7369458265264319 0.6046250170582889 1.0439083478970181 0.7223900068772534 -1.1175075266405536 0.13165077559510005 -0.4094489573180288 -0.17647841232592681 -0.5934596558509133 0.9575201683651327 1.276574326591204 0.4685282686689596 -0.7065306213724517 -0.39103076186898456 -0.11081745366446114 0.18982425451509216 1.273169756054365 -0.2829952659588858 -0.14459147361631436 0.22245183244405353 0.2789692490743219 -0.30032158829579486 -0.7402850835177985 0.24334588620394731 -0.6443030179223844 -0.45517840191998404 -0.42981537065631176 -0.3937760140792953 -0.16575496432197434 0.7935558817994663 -1.1272186054275593 -0.3141986498308856 -1.3534821387672886 0.3915027550479555 0.8011645382983541 0.058208868165605054 -0.7068986997831022 -0.13793130078718874 0.05616467873510958 -0.06649546253715488 -0.9281325678848007 -0.02104104433078234 -1.389935845406507 -0.7488434885737383 0.45351166014773237 0.3934040007184991 -1.125853947192239 -0.18931474342350618 0.3475975224225016 0.07027452602973623 -1.6204013635338725 1.5642638062588419 0.40253808028054117 0.23168743659178437 0.43050928204002303 -0.034424698772306694 -0.34770263165471504 0.46266880136848854 -0.5647388485873336 0.01907132672910139 -0.2529876393644426 0.635140035644026 0.9182226951685188 -0.19931592931317432 -0.413142886336723 0.12024060326082525 0.20834335959770256 -0.5587761459827906 -0.34603058029766 -0.2965210040437797 0.07146826092048436 0.755228434499194 0.11480355006896692 -0.24433302966706893 -0.04616277450757433 -0.5292237770667144 -0.0853583425413594 -0.1999296825580048 -0.7420510281588424 0.0629755136422655 0.07666723175839646 0.5971695511675514 -0.25328646467516014 0.2866025535505649 1.0196301500317602 0.877798493965167 0.5067434608980658 0.3284737019974306 0.6525372702649878 0.6904579949497871 0.43572860372426814 1.226224888596414 0.3633028999301367 -0.6801330695725772 0.1274548964611573 -1.0735287640973903 -0.48536047191323595 -0.14018503336340465 0.11655011144295019 -0.13847773744557373 0.8504717392715501 0.8426738497304614 -0.8016578453317308 -1.3133718007921782 -0.41725914680718545 -0.013464225230291338 -0.1979117752839665 0.22030948073951787 -1.0410639016458156 -1.8727210214020937 0.8204533929073812 0.43418806068163257 1.1470380724937796 -1.4954197600592516 -0.40749930082587543 0.517432347627987 -0.5939408642049827 -0.6488154935524187 1.9478047936639413 0.6278794294665998 -0.5344776392800278 0.4191008416422897 -0.06912146185186976 0.16396107198506094 0.35583810805602256 -0.28570936575347083 0.9926660545368047 -0.45499172177083025 2.178822745247728 -0.023542166342580412 -0.2010291074296564 -0.7387260871242503 -0.5573567176823929 -0.0004190729777841795 -0.8103330516698272 0.02850550890356021 1.0394531123993775 0.5056195657838014 -0.2169709551208132 0.08967358736065001 -0.29150153733465134 0.013293661913852457 0.9874493583572166 -0.06821076060226434 -0.6584911430388868 0.5137379000354005 -0.13754762472144394 0.02607477595397785 -0.25967632257454354 -0.07604783285652691 0.5095041230038376 1.1319723068229028 1.13822566330074 -0.7624255057048466 -0.14064282728351776 -0.3757615347932019 -0.8318415585994781 0.03687342276497174
mmcs_db_server$$has$$been$$started:$$*$$--useDatabase$$BGL$$--dbproperties$$serverdb.properties$$--iolog$$/bgl/BlueLight/logs/BGL$$--reconnect-blocks$$all 0.6475779922529415 -0.09672706274623147 -1.4075434122598829 -0.3347212330664787 0.33676544307977 1.4064860961744556 0.16566316272001202 0.4987352598217749 -0.6516106277787147 1.6610107745391298 -0.4568056119204527 -0.4046065114597348 1.2407096071576373 0.5292329339667191 0.19524980600232072 0.21120954970308295 0.7007804216891866 2.0908904766214738 0.9057754893218368 -0.3408075355905885 -0.6107754121391215 -0.05147235804027355 0.49613824703987247 0.17010665441284806 0.24469733227931434 0.06780413400788565 -0.9930822608946304 0.9067645040222263 0.1844734685078691 0.04103972685725005 0.05867612116325106 -0.12693305096751323 -0.014652484334670736 -0.07539923099663573 -1.2216089557142071 -0.3181668627339524 -0.44694165844411904 1.2694241901643992 0.3148751153574313 -0.49509417421393775 0.5867800766564713 -0.4135640518997671 -1.238957489591143 0.8906463793414415 -0.6126773701582156 0.4222464942012667 1.322989906999648 -0.14734558639775577 0.03151055418337896 -0.2692805346634998 -0.7008499885333985 -0.5254511143549733 -1.2924310400318548 0.2715139529269177 0.6541497910548377 -0.7067536783873463 -0.12303077315995081 -0.527387340093181 0.10248846953150798 -0.9577296915475022 -0.004884757571710002 -0.4827712127194156 -0.7049936558355331 -0.17200154459271072 -0.8456379006963586 -0.06264795616212454 0.6676885492963927 -0.32674562605759594 0.845838465569877 0.3490810594080832 0.7391552353930082 0.5808803975078904 0.4212096551845531 0.5358326187388934 0.5230420534581591 -0.9252071198506394 -0.6374406891358971 0.47560359232866223 -1.0414643842623685 0.3285344708317132 -0.8582255501922222 0.13934095786537187 -0.7137319357962721 0.03193060617435642 0.1894711131177853 1.2291958062239947 1.9162519061231384 -0.7221940438273035 -0.1580944839325111 0.32194920490700807 -0.02859699490344183 0.013271283907449654 0.3257483468327538 -0.4479068787139815 -0.20282205491493333 0.9647869595525795 -0.5585580751336074 0.8926654004570366 -0.5887929409132238 0.7818757674414201 -1.012679394936479 0.12121641233956075 -0.4929868346190558 0.17978110139678377 0.13242704537072006 -4.032526214908708 0.9976096784756683 0.6911455598419077 0.7801748342234308 -0.6164369698899932 -0.37570610591890236 0.38923628849124775 0.6599942030083742 -0.3380454118511575 -0.12053188301676368 -0.49574587050305585 0.017460519438900375 1.2983939844823231 -0.8820866343522538 -1.6432167845979158 -0.15045149664390126 0.993522938748911 0.3741041643657757 -0.502746333224211 0.08861554306496211 1.1056802743368013 -0.2587499341520031 -1.3378374124304833 0.8598145566943776 0.3056839036007588 -0.8784479029245031 0.6381672141691641 0.3260584372999607 -1.225349699145379 1.566170783280045 0.30103340311569726 0.10345542402605992 0.29205531683426084 0.2743814477929214 -0.8663693272155307 -1.1248224741044905 0.725321111012222 -0.7784752776180115 0.5850029618908374 0.22057879617734666 0.5478381144330517 -0.5297044652491223 0.9663099022740359 0.14062323029708662 -0.543485508974775 0.9491996790768195 0.08966692167684484 -0.3617129294290863 -1.0514434890075077 -0.4894063255430636 -0.39105010812359076 0.666242894086248 1.4425010024120875 1.4742044108550125 0.1067140680678041 -0.756599230241114 -0.047319955377873896 -0.5157323126137413 1.2531773339097736 0.7271762677056609 -1.0566227562526331 -0.8829867335185156 -1.0196448220716685 0.13872581471126316 -0.12638181627145686 1.5943123334556617 0.7075127317402101 -0.5380224784576411 0.7023699303213096 -0.7108628343447188 0.4414661970344044 -0.08879424900336434 -1.0267699232232106 -0.11416122805232562 0.9463758401129799 -0.9123517320912191 0.5391156231380815 -1.852994242814273 -0.508866742587711 -0.45616594629069357 -0.6433975385163176 -0.6941100111326854 -0.1730717443570763 1.1272406878620633 -0.2673268737370492 -0.382354800985928 -0.4047581326797318 -0.4580239739120982 -1.0070633170760837 -0.18717816450923336 0.905879325596862 -0.08659569485869965 -0.8303340141012454 0.8717702993401667 0.23621242089613784 0.0767467778804635 -0.36352338565927045 -0.12140089240638381 1.0713173995187475 -1.1714425815396856 -0.06942250382176687 2.458053945381469 0.48624903828394933 -0.16016559133944439 -1.0050756454424432 -0.5625939697893685 -0.48140668683211774 -0.6708010822796595 -1.2778161207677114 -0.06762550710581307 -1.4988909089933302 0.554986990566247 -0.820762547974948 -0.11517073658816593 -0.5867851287953695 0.04104205320830794 0.13898812663485224 1.6980152014928354 0.7769254222311879 0.23614482048429078 0.15818946860765074 0.5649781278089854 0.11796329647665024 -0.06793977110218966 0.11241135380293148 -0.09577214803235551 0.0036414730962048697 -0.8617532956980437 -0.02302817668524998 0.18166226789858125 0.09047731047963616 0.1704375836253599 -0.05248443411923942 -1.1835825670243374 -0.8386599430227147 0.11306821610898721 0.41229141752113585 0.5303115139953523 -0.8355513644810788 -0.12016046586913365 -0.33405552186082016 -1.5051245349761397 0.07065085405689366 0.5060098328709315 0.2751571516798333 0.09580787051651932 -0.13453849311040933 0.27448928557811075 0.07348141801071364 1.0632013793284403 -0.6756593340379875 0.7574440592443724 0.3441874035895295 -0.3579409863294103 -0.8777915395113491 0.6116400640666181 0.10295441417814835 1.2842218967083956 -0.17372675228934936 0.29431975508619285 0.4276800249421033 -1.2695304367124909 0.784060947293612 0.5071827111114037 -0.15473943029053783 0.09084879904146625 -0.25912782610608753 1.5728811378783563 -0.07097103705378725 0.9492105316353406 -0.2348391292892546 -0.87732589757068 -0.9550679693154562 0.9622813213750032 -0.9341558307885637 0.3562239588293435 -1.0793675708622394 0.09832765797374234 0.20016470618920895 -1.0898620050531822 -0.52237014300769 0.7264853316316365 0.8998452866079395 0.7151663904871435 0.3845354940747455 -0.145603870482634 -0.7876903673132554 0.5170295153556267 1.5683539407036495 -1.2627442909815378 -0.19080818948203035 -0.4024729172879933 0.07703373920104664 0.2491005988210237 -0.9357453849289389
ciod:$$LOGIN$$*$$failed:$$No$$such$$file$$or$$directory 0.3321530145663076 0.1397631581487647 -0.7388826558772368 -0.11525054628755141 0.32085901345699597 0.6459432865895964 0.2653839649754327 -1.0723707196918926 0.40566591857736295 5.336611453645052 -1.1093677054459787 -0.15890837757718007 0.17183398445917522 -0.11616566884837556 -0.7108268822487528 -0.12430718600024174 -3.8117691840595935e-07 4.783384113488821 -0.41673178966768876 -0.015462649388563121 -0.419515350579778 -0.024222111449614583 -0.45283305587924816 -0.17157343479589632 0.43293878151146803 0.4058488398320882 -0.14096061884654848 -0.8072932064140693 0.8900777630201162 -0.23073427807329025 0.05804292194770855 -0.09381809852033532 0.25895379437061933 0.0018077507063033044 -0.4971955303097849 -0.2548222525284135 -0.39488189934452805 0.5644059618339688 -0.010826184802416497 -0.3249604173412385 -0.445221873996984 0.4493752097300323 0.04914794604020982 -0.014824275972106518 -0.5335927696205781 0.18607749678840727 0.023940903879802744 0.5375854085746153 0.37672134378305744 -0.23263788614019504 -0.5198434713134366 0.06100810563587773 0.26914566779294224 -0.2915958349441446 -0.41695982088608163 0.002500467922561478 -0.315334360196116 -1.0794035262114958 -0.3052499203807957 -0.6575973471092056 -0.06719942020449673 0.4553940211805656 -0.6798889192490976 0.5125100025197782 0.6748776012735941 0.5144285794153417 0.14863458664141846 -0.27602770291148665 0.20736632367542385 0.5931991767598906 0.9602785801531079 0.3286327224890985 0.6346078588426094 -0.05259845072291873 0.44271953902325534 0.6210905236755363 -0.07962904282882521 -0.14161712327069262 0.3909003281353717 0.9357587534652279 -0.6472701497237656 -0.08300424034648238 -0.3847271989875707 -0.8508423018059605 -0.7273596711960053 0.3428246798431421 0.8912547989704876 -0.5342240503510025 0.9366516126401365 -0.3725246357138895 -1.036903362544678 0.3289006844701562 0.8042431752035635 -0.4038507592781391 0.8714512683786679 0.42688533215282576 -0.06429673522528258 0.13134350185827315 0.37540076238577846 -0.048711318925782204 -0.8348374976288016 0.24707700287537196 0.6423309692482925 -0.18004163499584405 0.4745184506086962 -2.08137191857818 -0.5829631802425272 0.5537287664042015 0.20671287670718558 0.3771262598351952 -0.3928561616925477 0.04248236615130364 -0.003635708843658464 -0.21375837263540448 -0.775409334127829 -0.44837329472475795 1.343957006742891 0.6914973749136129 -0.9512618819038869 -0.025224037023179213 -0.3165907751564957 0.4033138300627655 0.15272261030127 0.03068440476765838 -0.23788588652722437 -0.07978237967829208 0.15428040891572875 -0.428528597639673 0.6494995623294233 0.7784628479183864 0.12383461127471168 0.6002330173402846 -0.8534418620953012 -0.26144861404544256 0.39977931935299815 0.3433693792312089 0.09813601558578577 -0.422499674176706 0.0873439846889327 -0.3273317052937532 -2.1735011691608888 -0.11634391528166103 0.17243210450780372 -0.7006341579855007 0.22292809572555325 0.18809460252289978 0.7737777222304236 -0.15636555568897087 -0.8720366561126744 0.07467029644172973 0.9373964012500133 0.4005217324646774 0.06903136758327771 0.3760994402105389 -0.10445809646425092 0.4819563891794713 -0.16383697881714904 0.6227179186351569 0.7419879254318847 -0.006765487678924292 -0.21627827417406237 -0.5336525997742566 0.2961334593214908 -0.10887753881742872 -0.6747569017561849 -0.222795458169988 0.1550091770916653 -0.08219006965736506 0.08425918241572983 -0.2651818654622021 -0.10435499474004033 0.42774159413527746 0.05367843005849496 0.4488652918440035 0.17960099706588034 0.6747071253521351 0.23909375125954718 -0.3155422385956296 -0.41423292320082117 0.3265844311602225 0.48273313512477467 -0.2715161926299505 -0.3124045877830941 -0.2136682032522162 -0.40226464551091756 0.213622716254152 -0.5360260985272584 0.16314778738529445 -0.8097229350132984 -0.4738931173281564 -0.383822341780497 0.4145964572007568 -0.33750019061908426 1.0302115405954528 0.702653095348922 0.19826658679828632 -0.30593795414372993 -0.4003775090214842 0.5065427002997938 1.6600456459504187 0.4395199521817057 -0.43884940397388195 -0.14673324227875462 0.18015333409510725 0.42268767909286453 0.22607182330591494 0.5205770848786868 0.10269912780839288 0.2256531440271497 0.5749404764734165 0.17711424669618103 -0.3556782750945565 -0.29385140117665703 0.08232672010703282 -0.388367007387016 -0.16870425693007873 -0.3875789286082183 0.018226980226150657 -1.5067028593758918 -0.46720287508995495 0.08903231694528504 0.4128968722629014 -0.03450971832030311 0.8387645669558779 0.2642706079328195 0.45279756016059824 -0.28074235536573633 0.20717048918726833 0.37195907532438816 -0.4120946238507553 -0.1259072548508724 -0.2543271773384433 0.5878122164967341 0.36455869879805136 -0.4151160846804697 -0.223762796155707 0.1284983480805763 -0.48115917462413144 -0.24047680262106502 -0.3506948157835147 0.26817557632055034 0.7078974135130722 0.44058223656988105 -0.17589702609741772 0.8455323113396649 -1.580311431512631 0.14706123844374058 0.23085962093390905 -0.3879569007203637 -0.2756907865591542 0.4533694837767692 -0.24844724857629263 -0.2285210710752235 -0.05244924117314011 0.2231991799796777 0.6768740499269328 -0.7181175115688019 -0.25518953112573206 0.31792315415525063 -0.37589672879201563 0.43849378250291793 0.6613136855980165 0.6823422648864716 0.21196110488316303 -0.08752069625900752 -0.07783871404199438 0.14647771772083035 -0.09068554488152676 2.7279281819398387 -0.621417915225675 0.3443115142416339 0.08702421775442323 1.0094474740411787 -0.26250508036617437 0.33818278133783697 0.2878550320948886 -0.09069696414751865 -0.04193226464904715 0.3554101227772795 -0.4970934293161044 0.21621308008402382 0.12335090101065757 0.9093173939191577 0.07578120704514173 0.4958416606269632 -0.6878758040734645 -0.3510801619163476 0.05304960312056725 1.1651971036709454 -1.0581282645045436 -0.46878515497743 0.7907454967125208 -0.002495334903160843 -0.1883657229439306 -0.2840700951408463 -0.5928735811015714 -0.13614478134516642 -0.6578810793638854 0.30632293603022376 0.344824346384042
